svm_type one_class
kernel_type linear
nr_class 2
total_sv 25
rho 926.72041935108757
SV
1 1:0.020342723 2:0.016723135 3:0.017567717 4:0.095309071 5:0.32748336 6:0.32748336 7:0.15379564 8:0.020906581 9:0.016783195 10:0.037860677 11:0.034116328 12:0.043686908 13:0.096391603 14:0.31667691 15:0.26491189 16:0.13090463 17:0.058328528 18:0.028349431 19:0.030510928 20:0.025250386 21:0.029429261 22:0.12632979 23:0.32748336 24:0.32748336 25:0.13460603 26:0.050147325 27:0.016296003 28:0.06961751 29:0.064311273 30:0.107053 31:0.18632518 32:0.30042735 33:0.32748336 34:0.17509596 35:0.065373465 36:0.028282162 37:0.06404838 38:0.081114188 39:0.13268685 40:0.19395328 41:0.22027472 42:0.18149082 43:0.11399616 44:0.14989647 45:0.085472189 46:0.070163421 47:0.077798456 48:0.16507325 49:0.22027472 50:0.22027472 51:0.20610224 52:0.12030941 53:0.2108568 54:0.20499444 55:0.07829567 56:0.085150383 57:0.22027472 58:0.22027472 59:0.22027472 60:0.1850988 61:0.15313566 62:0.17793021 63:0.074764937 64:0.018451856 65:0.057608772 66:0.22027472 67:0.22027472 68:0.22027472 69:0.21248406 70:0.12615937 71:0.22027472 72:0.1274676 73:0.063065723 74:0.11308976 75:0.14623 76:0.1966041 77:0.22349575 78:0.19940491 79:0.17487992 80:0.13502181 81:0.14007872 82:0.087590583 83:0.11571136 84:0.12287473 85:0.17145392 86:0.22349575 87:0.13575703 88:0.17680185 89:0.12175208 90:0.099299341 91:0.035264891 92:0.093339086 93:0.22349575 94:0.22349575 95:0.22349575 96:0.22349575 97:0.17669582 98:0.14033343 99:0.13604161 100:0.080175653 101:0.092319265 102:0.14888762 103:0.22349575 104:0.22349575 105:0.22349575 106:0.22349575 107:0.17488833 108:0.16202009 109:0.051665332 110:0.050705001 111:0.081561945 112:0.064511925 113:0.2647683 114:0.16011636 115:0.056788765 116:0.054569557 117:0.055188105 118:0.034429781 119:0.055560447 120:0.080738388 121:0.13971154 122:0.41191006 123:0.41191006 124:0.051198479 125:0.034225043 126:0.026418211 127:0.062509015 128:0.035876777 129:0.045927327 130:0.10221899 131:0.16741018 132:0.20178941 133:0.10574452 134:0.082649179 135:0.084768765 136:0.063584186 137:0.046151582 138:0.036120277 139:0.17967951 140:0.41191006 141:0.41191006 142:0.064401969 143:0.051334817 144:0.055863295 145:0.0032289941 146:0.014182755 147:0.048919398 148:0.16736621 149:0.36222714 150:0.3083649 151:0.029171238 152:0.021566495 153:0.006487323 154:0.01232465 155:0.021959491 156:0.064377561 157:0.1752985 158:0.36222714 159:0.18494251 160:0.19049206 161:0.10136794 162:0.040337045 163:0.0059414804 164:0.010984886 165:0.0073776622 166:0.065263391 167:0.36222714 168:0.36222714 169:0.026850486 170:0.018992772 171:0.0055195736 172:0.0099867582 173:0.0062341169 174:0.01770705 175:0.074551053 176:0.36222714 177:0.28752789 178:0.029891295 179:0.013106401 180:0.0066573238 181:0.014114235 182:0.014952438 183:0.018533712 184:0.037814237 185:0.17091863 186:0.31661925 187:0.31661925 188:0.11233822 189:0.027891295 190:0.0057045277 191:0.0085620489 192:0.0052884948 193:0.027684055 194:0.16136962 195:0.31661925 196:0.31661925 197:0.019237524 198:0.0044075381 199:0.014888123 200:0.011978338 201:0.015031379 202:0.038748413 203:0.27572355 204:0.31661925 205:0.22955726 206:0.016221521 207:0.011894592 208:0.0072437357 209:0.0065137171 210:0.0054961084 211:0.026325293 212:0.31661925 213:0.31661925 214:0.30133587 215:0.0091367643 216:0.0065683224 217:0.0059381416 218:0.0079760905 219:0.0070194481 220:0.067336217 221:0.34282616 222:0.34282616 223:0.072294347 224:0.010468695 225:0.0055348952 226:0.010677745 227:0.0023891355 228:0.0055864556 229:0.036253832 230:0.34282616 231:0.34282616 232:0.035998724 233:0.0043706526 234:0.0059677586 235:0.011767181 236:0.008881988 237:0.011490328 238:0.069804125 239:0.34282616 240:0.34282616 241:0.17093143 242:0.0106234 243:0.0063934959 244:0.020992823 245:0.0083217612 246:0.010478342 247:0.067183539 248:0.34282616 249:0.34282616 250:0.059981242 251:0.0065655787 252:0.01020658 253:0.038602192 254:0.030409094 255:0.022916615 256:0.12574521 257:0.31828636 258:0.31828636 259:0.080279976 260:0.03347392 261:0.022900378 262:0.083254948 263:0.06550578 264:0.11181101 265:0.18779624 266:0.31828636 267:0.27729625 268:0.096085399 269:0.032238726 270:0.051456332 271:0.046785869 272:0.052095182 273:0.050234064 274:0.13548881 275:0.31828636 276:0.31828636 277:0.075875744 278:0.025536925 279:0.03211287 280:0.089080453 281:0.078506172 282:0.087103903 283:0.17444757 284:0.31828636 285:0.31828636 286:0.10841843 287:0.095673881 288:0.076031096 289:0.12651117 290:0.079234906 291:0.22822423 292:0.22822423 293:0.22822423 294:0.18057747 295:0.12202276 296:0.092778124 297:0.099830993 298:0.044314589 299:0.070553109 300:0.17457509 301:0.17415079 302:0.22822423 303:0.15411599 304:0.11780282 305:0.12285282 306:0.081160627 307:0.12847757 308:0.069974191 309:0.15879266 310:0.22451329 311:0.22822423 312:0.22822423 313:0.17669989 314:0.18798517 315:0.12743479 316:0.16564505 317:0.18019399 318:0.16646545 319:0.14636229 320:0.22822423 321:0.22822423 322:0.13128544 323:0.14782132 324:0.19407499 325:0.037028018 326:0.079194561 327:0.13858397 328:0.11894263 329:0.1413929 330:0.1121616 331:0.099739105 332:0.068177097 333:0.093481928 334:0.066950314 335:0.10290483 336:0.13576896 337:0.17293416 338:0.15674731 339:0.13772243 340:0.16430265 341:0.12351505 342:0.11697284 343:0.26261353 344:0.26261353 345:0.13960545 346:0.077535994 347:0.16061665 348:0.14265361 349:0.10659654 350:0.089414969 351:0.26261353 352:0.26261353 353:0.26261353 354:0.26261353 355:0.24222775 356:0.21863806 357:0.14442115 358:0.13757156 359:0.13252179 360:0.26261353 361:0.078120887 362:0.052743897 363:0.047826976 364:0.083043255 365:0.064383648 366:0.10006861 367:0.053932685 368:0.057444721 369:0.058121368 370:0.20967115 371:0.0555689 372:0.032769274 373:0.10139814 374:0.25622651 375:0.25622651 376:0.053467821 377:0.09442611 378:0.15924065 379:0.21951686 380:0.25622651 381:0.24069473 382:0.14364366 383:0.081886441 384:0.073128238 385:0.12231036 386:0.13286608 387:0.15984161 388:0.25622651 389:0.25622651 390:0.22981633 391:0.13394329 392:0.14119513 393:0.217274 394:0.25622651 395:0.25622651 396:0.25622651 397:0.20181125 398:0.046990119 399:0.026870569 400:0.098884173 401:0.26549652 402:0.26549652 403:0.029157249 404:0.054663528 405:0.083770812 406:0.1019208 407:0.039381005 408:0.035292283 409:0.11456522 410:0.26549652 411:0.24699615 412:0.0086261751 413:0.019680232 414:0.017764606 415:0.26549652 416:0.16452572 417:0.12274023 418:0.11920214 419:0.19649269 420:0.26017296 421:0.20347784 422:0.26549652 423:0.22733003 424:0.22572298 425:0.079368949 426:0.046117373 427:0.14042151 428:0.26549652 429:0.22839463 430:0.11797154 431:0.1307838 432:0.063443899 433:0.011774436 434:0.021118049 435:0.022797538 436:0.05389788 437:0.27595586 438:0.38703182 439:0.068406805 440:0.017875977 441:0.014329295 442:0.0069026691 443:0.012866523 444:0.007253855 445:0.030092066 446:0.38703182 447:0.38703182 448:0.12090809 449:0.010259554 450:0.011058532 451:0.017980449 452:0.026342204 453:0.024025947 454:0.083828717 455:0.27612004 456:0.23208171 457:0.022943653 458:0.026460741 459:0.026139079 460:0.010583307 461:0.011927877 462:0.0084722573 463:0.053258728 464:0.38703182 465:0.38703182 466:0.026719831 467:0.019450927 468:0.029860668 469:0.0045288522 470:0.0087663149 471:0.0089751557 472:0.03828834 473:0.38345709 474:0.38345709 475:0.056315314 476:0.0041751661 477:0.0033191645 478:0.0064370623 479:0.003911579 480:0.0050017815 481:0.033187233 482:0.31933641 483:0.26343504 484:0.024454271 485:0.0027072914 486:0.0050273733 487:0.031538561 488:0.0081597865 489:0.013132812 490:0.094075799 491:0.38345709 492:0.38345709 493:0.013892232 494:0.011328717 495:0.099686377 496:0.025315549 497:0.0019145872 498:0.0062434901 499:0.057780337 500:0.38345709 501:0.22942552 502:0.0095320828 503:0.0034604026 504:0.076403581 505:0.021725414 506:0.028159034 507:0.035580177 508:0.092128374 509:0.33314964 510:0.33314964 511:0.032287199 512:0.019373301 513:0.02052507 514:0.054879732 515:0.076184459 516:0.053393696 517:0.08646927 518:0.33314964 519:0.33314964 520:0.090019867 521:0.084682189 522:0.031351388 523:0.012449454 524:0.01234579 525:0.027574517 526:0.11915982 527:0.33314964 528:0.33314964 529:0.052710209 530:0.020638919 531:0.028653679 532:0.027321877 533:0.059885301 534:0.051835559 535:0.12925535 536:0.33314964 537:0.33314964 538:0.10492551 539:0.043095689 540:0.067951798 541:0.075901277 542:0.06490808 543:0.082961753 544:0.13520767 545:0.15125029 546:0.18803139 547:0.094483249 548:0.13676688 549:0.063126303 550:0.15449291 551:0.21027081 552:0.1669706 553:0.16143773 554:0.10866193 555:0.17383242 556:0.15467259 557:0.26538044 558:0.16181697 559:0.060156748 560:0.070831016 561:0.11727162 562:0.26538044 563:0.26538044 564:0.099930875 565:0.062175415 566:0.088939324 567:0.078902192 568:0.13359365 569:0.16911505 570:0.18428238 571:0.26538044 572:0.26538044 573:0.09584453 574:0.20799683 575:0.26538044 576:0.22893432 577:0.20659995 578:0.21652073 579:0.084835403 580:0.046934072 581:0.07383281 582:0.087679587 583:0.09809076 584:0.24202025 585:0.20106015 586:0.2480491 587:0.2480491 588:0.14035685 589:0.090855941 590:0.10643963 591:0.075201161 592:0.077114992 593:0.085913807 594:0.19985457 595:0.16324528 596:0.16584338 597:0.063529931 598:0.065020956 599:0.05243402 600:0.18781157 601:0.2480491 602:0.2480491 603:0.2480491 604:0.19241275 605:0.14734028 606:0.050545163 607:0.048684068 608:0.11340831 609:0.2480491 610:0.2480491 611:0.19327369 612:0.18323919 613:0.18614222 614:0.25775436 615:0.14801967 616:0.077842437 617:0.084571213 618:0.074060068 619:0.20440218 620:0.12491741 621:0.1093286 622:0.1477977 623:0.1887769 624:0.14346567 625:0.050182275 626:0.12361148 627:0.27940875 628:0.27940875 629:0.21302144 630:0.13948396 631:0.096476108 632:0.095683388 633:0.05427726 634:0.057758164 635:0.17777392 636:0.25513726 637:0.25439239 638:0.11823306 639:0.075446181 640:0.045715824 641:0.072734199 642:0.061882772 643:0.13931657 644:0.23257324 645:0.27940875 646:0.27940875 647:0.14618041 648:0.036023133 649:0.16937225 650:0.10756914 651:0.11790599 652:0.0599613 653:0.16059712 654:0.30781862 655:0.30781862 656:0.20122205 657:0.096940517 658:0.086232662 659:0.035783216 660:0.039424177 661:0.10046449 662:0.19217712 663:0.30781862 664:0.17247932 665:0.093695007 666:0.047643635 667:0.043816857 668:0.03340983 669:0.050218105 670:0.16266948 671:0.22280832 672:0.30781862 673:0.30781862 674:0.073173143 675:0.029950732 676:0.025426708 677:0.01517952 678:0.039733358 679:0.10521355 680:0.29509374 681:0.30781862 682:0.083270632 683:0.025207626 684:0.028153611 685:0.010352753 686:0.012177928 687:0.024450343 688:0.08059857 689:0.22572753 690:0.18750525 691:0.032758534 692:0.020284167 693:0.022661911 694:0.017863089 695:0.0043179607 696:0.007704237 697:0.088098384 698:0.38277599 699:0.38277599 700:0.12483881 701:0.02456014 702:0.034989044 703:0.0022085758 704:0.0065242727 705:0.031487215 706:0.075384527 707:0.23554218 708:0.35340264 709:0.042240232 710:0.018598195 711:0.011799254 712:0.011189834 713:0.0066956887 714:0.017339619 715:0.071777336 716:0.38277599 717:0.38277599 718:0.30534819 719:0.025970418 720:0.013317359 721:0.060296774 722:0.0048765158 723:0.0037530141 724:0.072018385 725:0.35939389 726:0.35939389 727:0.08390642 728:0.007752182 729:0.10004944 730:0.046857215 731:0.0034679829 732:0.0027509336 733:0.026836699 734:0.35939389 735:0.1666315 736:0.0049226992 737:0.0017613313 738:0.076505303 739:0.041145079 740:0.0085134143 741:0.0068654637 742:0.048415408 743:0.35939389 744:0.35939389 745:0.24611911 746:0.0062882234 747:0.032324411 748:0.033079732 749:0.007383245 750:0.0044425693 751:0.015090501 752:0.35939389 753:0.30138135 754:0.013023901 755:0.00032252786 756:0.025708986 757:0.017917773 758:0.021675576 759:0.028747778 760:0.10981286 761:0.33546382 762:0.33546382 763:0.044937469 764:0.011487773 765:0.015298393 766:0.020947369 767:0.049006317 768:0.041029681 769:0.15933841 770:0.33546382 771:0.33546382 772:0.078525305 773:0.025990147 774:0.046910904 775:0.015634697 776:0.023159355 777:0.026233956 778:0.050245162 779:0.33546382 780:0.33546382 781:0.054145705 782:0.020667605 783:0.010945764 784:0.0054311124 785:0.027243633 786:0.050216272 787:0.15720268 788:0.33546382 789:0.33546382 790:0.072856903 791:0.021093532 792:0.01060969 793:0.022103472 794:0.047368407 795:0.064575382 796:0.34187239 797:0.35832992 798:0.086324982 799:0.036920194 800:0.033219442 801:0.035888311 802:0.029696381 803:0.048838343 804:0.083880521 805:0.35177886 806:0.35832992 807:0.036940418 808:0.057423696 809:0.15560697 810:0.078428917 811:0.0042078984 812:0.017472384 813:0.037383862 814:0.28079614 815:0.35832992 816:0.19017422 817:0.047483973 818:0.027304476 819:0.0045820512 820:0.0064975652 821:0.010726598 822:0.028457737 823:0.23162796 824:0.35832992 825:0.062164687 826:0.018054029 827:0.01321499 828:0.0041022268 829:0.058650166 830:0.058847442 831:0.039078455 832:0.071111754 833:0.089984514 834:0.26299888 835:0.29011539 836:0.2405472 837:0.15883541 838:0.18071759 839:0.056968298 840:0.01052509 841:0.030652119 842:0.17917638 843:0.29011539 844:0.29011539 845:0.20236652 846:0.25207293 847:0.011709878 848:0.0073323394 849:0.018919503 850:0.072688475 851:0.20486161 852:0.11765086 853:0.058427438 854:0.022285083 855:0.014448059 856:0.21512742 857:0.014316905 858:0.0099390289 859:0.063600242 860:0.22248191 861:0.29011539 862:0.24642038 863:0.11733957 864:0.26955044 865:0.19210842 866:0.10762211 867:0.059797578 868:0.030555425 869:0.13869871 870:0.24847233 871:0.18521558 872:0.085058898 873:0.1530492 874:0.1192803 875:0.19009292 876:0.12976672 877:0.14769201 878:0.24847233 879:0.24847233 880:0.24847233 881:0.12174243 882:0.058949154 883:0.24847233 884:0.086856149 885:0.067045622 886:0.05722858 887:0.10771157 888:0.13605705 889:0.091626786 890:0.05828933 891:0.20687364 892:0.17844236 893:0.19991396 894:0.24847233 895:0.24847233 896:0.24847233 897:0.22768746 898:0.13843565 899:0.056659792 900:0.11426938 901:0.02775869 902:0.093674846 903:0.099539474 904:0.12913804 905:0.18729278 906:0.28606194 907:0.20324194 908:0.068485618 909:0.017622646 910:0.042669721 911:0.11666768 912:0.15356396 913:0.08619462 914:0.17421265 915:0.28606194 916:0.051341787 917:0.023266945 918:0.030227149 919:0.12850389 920:0.28606194 921:0.28606194 922:0.22520156 923:0.21842049 924:0.21543458 925:0.13266604 926:0.04620507 927:0.085527144 928:0.24822651 929:0.28606194 930:0.28606194 931:0.08948531 932:0.071800917 933:0.12860538 934:0.044431489 935:0.028845625 936:0.15883264 937:0.056861974 938:0.061830301 939:0.080590263 940:0.085164249 941:0.146788 942:0.21253476 943:0.029147269 944:0.033623427 945:0.080550954 946:0.019066472 947:0.0066715037 948:0.014930328 949:0.03427048 950:0.28336385 951:0.28336385 952:0.099385098 953:0.049095191 954:0.056700055 955:0.28336385 956:0.28336385 957:0.14334378 958:0.068461828 959:0.062672585 960:0.068573825 961:0.036866527 962:0.23798914 963:0.28336385 964:0.070591301 965:0.022170825 966:0.015194739 967:0.014812861 968:0.28336385 969:0.28336385 970:0.25184679 971:0.28336385 972:0.28336385 973:0.0048441114 974:0.0045619686 975:0.0058180024 976:0.018909054 977:0.35160568 978:0.35160568 979:0.078518011 980:0.011395213 981:0.0063704941 982:0.003161486 983:0.0020034511 984:0.0035351187 985:0.013381748 986:0.29452482 987:0.29500708 988:0.0064195637 989:7.8534955e-05 990:0.0018945081 991:0.0052862642 992:0.016779983 993:0.014169214 994:0.018489111 995:0.35160568 996:0.35160568 997:0.18281262 998:0.19540812 999:0.030852143 1000:0.0016612645 1001:0.0019140939 1002:0.0039803763 1003:0.018467255 1004:0.35160568 1005:0.35160568 1006:0.01156979 1007:0.0048349155 1008:0.0016612645 1009:0.0061937473 1010:0.017167825 1011:0.034237158 1012:0.061019782 1013:0.34092885 1014:0.30412766 1015:0.072270647 1016:0.026852418 1017:0.0057691447 1018:0.0016552116 1019:0.029536989 1020:0.096932143 1021:0.18308663 1022:0.34092885 1023:0.34092885 1024:0.044438321 1025:0.011115639 1026:0.0018022584 1027:0.0076062582 1028:0.0091955895 1029:0.029584028 1030:0.065858096 1031:0.34092885 1032:0.2926183 1033:0.064938806 1034:0.021729723 1035:0.0042944653 1036:0.0045218971 1037:0.032892421 1038:0.08225061 1039:0.19423126 1040:0.34092885 1041:0.34092885 1042:0.07247775 1043:0.053007554 1044:0.016172379 1045:0.016658446 1046:0.016967904 1047:0.042297974 1048:0.17671902 1049:0.3149949 1050:0.15375359 1051:0.053298317 1052:0.016037308 1053:0.027987864 1054:0.026904006 1055:0.012273751 1056:0.01508143 1057:0.12351486 1058:0.3149949 1059:0.055932116 1060:0.064769909 1061:0.022645848 1062:0.051676691 1063:0.057008162 1064:0.12764381 1065:0.066198617 1066:0.18987696 1067:0.3149949 1068:0.24674582 1069:0.23304017 1070:0.10245983 1071:0.11960367 1072:0.080835424 1073:0.13291797 1074:0.041812722 1075:0.12869725 1076:0.3149949 1077:0.31293049 1078:0.3149949 1079:0.17699279 1080:0.20257315 1081:0.018538591 1082:0.0098876283 1083:0.026642038 1084:0.15059242 1085:0.35176548 1086:0.065069489 1087:0.060821563 1088:0.023228152 1089:0.037228003 1090:0.091759488 1091:0.0092684021 1092:0.023785522 1093:0.15929143 1094:0.35176548 1095:0.12034076 1096:0.068246841 1097:0.05856435 1098:0.11973254 1099:0.039511479 1100:0.048271317 1101:0.039286889 1102:0.18436067 1103:0.35176548 1104:0.35176548 1105:0.35176548 1106:0.14618677 1107:0.12140939 1108:0.010748864 1109:0.017932987 1110:0.033662245 1111:0.21805029 1112:0.35176548 1113:0.15233088 1114:0.030818276 1115:0.011857023 1116:0.0082202852 1117:0.035357065 1118:0.0073845214 1119:0.044751473 1120:0.10932789 1121:0.17358676 1122:0.036039975 1123:0.020097377 1124:0.016683865 1125:0.034909211 1126:0.036472309 1127:0.043411374 1128:0.37911516 1129:0.37911516 1130:0.37911516 1131:0.070785396 1132:0.025188759 1133:0.011258785 1134:0.039044369 1135:0.0031488296 1136:0.0025513603 1137:0.021739179 1138:0.10546418 1139:0.37911516 1140:0.07557594 1141:0.0079153888 1142:0.0052802153 1143:0.0040271208 1144:0.0016994256 1145:0.004912619 1146:0.15518375 1147:0.37911516 1148:0.37911516 1149:0.18185423 1150:0.0094543016 1151:0.0048455936 1152:0.0040465053 1153:0.067153037 1154:0.22043717 1155:0.29188174 1156:0.29188174 1157:0.19209753 1158:0.050601568 1159:0.019954626 1160:0.0099994307 1161:0.055909909 1162:0.14586103 1163:0.29188174 1164:0.29188174 1165:0.11479021 1166:0.064895079 1167:0.031714045 1168:0.040885579 1169:0.0469153 1170:0.10507672 1171:0.011614186 1172:0.056358449 1173:0.23915072 1174:0.29188174 1175:0.29188174 1176:0.10714468 1177:0.01248009 1178:0.012397269 1179:0.0096961753 1180:0.069746561 1181:0.15680902 1182:0.20397079 1183:0.26909897 1184:0.27589756 1185:0.093873978 1186:0.11051782 1187:0.12550306 1188:0.079910345 1189:0.17492311 1190:0.17447907 1191:0.054315578 1192:0.056595117 1193:0.076267548 1194:0.052795723 1195:0.10856763 1196:0.19676596 1197:0.24910632 1198:0.077812351 1199:0.027785491 1200:0.024118818 1201:0.036932271 1202:0.18577051 1203:0.22869077 1204:0.25994349 1205:0.25994349 1206:0.1886591 1207:0.12037036 1208:0.13844782 1209:0.10463087 1210:0.1167682 1211:0.1877777 1212:0.17577162 1213:0.25994349 1214:0.23024051 1215:0.11695072 1216:0.11035663 1217:0.063390858 1218:0.08841373 1219:0.10011254 1220:0.25994349 1221:0.25994349 1222:0.25994349 1223:0.20442277 1224:0.074422613 1225:0.015734727 1226:0.020056596 1227:0.024619013 1228:0.0378851 1229:0.30263618 1230:0.30263618 1231:0.30263618 1232:0.21719579 1233:0.030510677 1234:0.0027539551 1235:0.0050691348 1236:0.006846806 1237:0.022082195 1238:0.30263618 1239:0.30263618 1240:0.030384099 1241:0.011302912 1242:0.0012925445 1243:0.043922212 1244:0.025838545 1245:0.036703143 1246:0.10302956 1247:0.30263618 1248:0.30263618 1249:0.30263618 1250:0.096424274 1251:0.022735907 1252:0.0077962927 1253:0.0067193853 1254:0.0055375653 1255:0.047475036 1256:0.30263618 1257:0.30263618 1258:0.041822854 1259:0.0123199 1260:0.0027888061 1261:0.0026134935 1262:0.0026855825 1263:0.013492648 1264:0.031439882 1265:0.32858258 1266:0.28861254 1267:0.040404614 1268:0.011936525 1269:0.0056797136 1270:0.0030468875 1271:0.0150808 1272:0.052127287 1273:0.16837855 1274:0.32858258 1275:0.32858258 1276:0.095771663 1277:0.057255939 1278:0.031199912 1279:0.0032847461 1280:0.0034366448 1281:0.0087053683 1282:0.04355913 1283:0.32858258 1284:0.28249696 1285:0.053321291 1286:0.022148013 1287:0.010848094 1288:0.0077700377 1289:0.026837407 1290:0.22586577 1291:0.26586601 1292:0.32858258 1293:0.32858258 1294:0.096167833 1295:0.023304591 1296:0.019387778 1297:0.018929921 1298:0.059721064 1299:0.047930542 1300:0.16277081 1301:0.28004503 1302:0.19689862 1303:0.13912684 1304:0.055989176 1305:0.050313532 1306:0.028501827 1307:0.064048648 1308:0.030587325 1309:0.095698088 1310:0.22465917 1311:0.28967369 1312:0.28967369 1313:0.085977323 1314:0.079523504 1315:0.02571678 1316:0.05426741 1317:0.25891024 1318:0.23967558 1319:0.28863835 1320:0.17735347 1321:0.049840812 1322:0.022585204 1323:0.034674734 1324:0.059771515 1325:0.061764132 1326:0.14212501 1327:0.18621112 1328:0.28967369 1329:0.28967369 1330:0.28458753 1331:0.070680201 1332:0.10971341 1333:0.0088380687 1334:0.013439175 1335:0.015342684 1336:0.043827016 1337:0.24591967 1338:0.35761201 1339:0.35761201 1340:0.034044497 1341:0.029655948 1342:0.0024312558 1343:0.0060371538 1344:0.01281579 1345:0.056764688 1346:0.17114592 1347:0.14120542 1348:0.044846788 1349:0.0060869921 1350:0.005549306 1351:0.040241718 1352:0.024122655 1353:0.048895761 1354:0.15156829 1355:0.35761201 1356:0.35761201 1357:0.34104404 1358:0.057643373 1359:0.086109996 1360:0.0049752821 1361:0.0061758854 1362:0.022423554 1363:0.089373209 1364:0.35761201 1365:0.26418713 1366:0.06194694 1367:0.015114542 1368:0.017316703 1369:0.0012545533 1370:0.0014931614 1371:0.0052922 1372:0.027964028 1373:0.37165543 1374:0.14619908 1375:0.0073219105 1376:0.0033288475 1377:0.0031149299 1378:0.0023811618 1379:0.00015029717 1380:0.0058076372 1381:0.1244271 1382:0.3995173 1383:0.3995173 1384:0.021769583 1385:0.0013722355 1386:0.0026017034 1387:0.003229741 1388:0.0028605345 1389:0.0081388298 1390:0.025033696 1391:0.20304216 1392:0.19545615 1393:0.024532905 1394:0.0066886577 1395:0.010034738 1396:0.0052942862 1397:0.0040533296 1398:0.0038449648 1399:0.024877084 1400:0.3995173 1401:0.3995173 1402:0.31475493 1403:0.022148874 1404:0.0055456879 1405:0.0095738526 1406:0.020401759 1407:0.026177419 1408:0.165857 1409:0.29985186 1410:0.29985186 1411:0.07458955 1412:0.028312769 1413:0.0044723479 1414:0.066208191 1415:0.069396645 1416:0.087314226 1417:0.15368533 1418:0.22952114 1419:0.22113797 1420:0.17107962 1421:0.12798929 1422:0.084975846 1423:0.0085683409 1424:0.014668077 1425:0.0018768833 1426:0.019935356 1427:0.29985186 1428:0.29985186 1429:0.29985186 1430:0.11821193 1431:0.0063280025 1432:0.062613808 1433:0.036715314 1434:0.028681019 1435:0.059166279 1436:0.10373127 1437:0.28383076 1438:0.29985186 1439:0.29985186 1440:0.14842062 1441:0.10854261 1442:0.08318913 1443:0.10951908 1444:0.10848755 1445:0.16944195 1446:0.22253405 1447:0.23378125 1448:0.18900836 1449:0.1481736 1450:0.094195023 1451:0.096024126 1452:0.15998696 1453:0.12511146 1454:0.2329046 1455:0.23378125 1456:0.23378125 1457:0.10498402 1458:0.055126213 1459:0.15980963 1460:0.090129338 1461:0.11118878 1462:0.12379815 1463:0.10982291 1464:0.19784857 1465:0.23378125 1466:0.23378125 1467:0.23378125 1468:0.16789466 1469:0.23378125 1470:0.23378125 1471:0.16036382 1472:0.13173987 1473:0.16147733 1474:0.11586244 1475:0.093694478 1476:0.1493814 1477:0.044763308 1478:0.055302363 1479:0.10226412 1480:0.14263941 1481:0.2891008 1482:0.2891008 1483:0.1754183 1484:0.03855693 1485:0.013908315 1486:0.0079111625 1487:0.0086167036 1488:0.0073223878 1489:0.048992507 1490:0.2891008 1491:0.2891008 1492:0.027103931 1493:0.010323519 1494:0.0023914236 1495:0.11589711 1496:0.23277861 1497:0.2891008 1498:0.25406536 1499:0.2891008 1500:0.2891008 1501:0.08801093 1502:0.022303788 1503:0.02744648 1504:0.042817742 1505:0.061630528 1506:0.048212279 1507:0.14723623 1508:0.2891008 1509:0.2891008 1510:0.046479806 1511:0.011254485 1512:0.0075335414 1513:0.0047178273 1514:0.00381898 1515:0.081549101 1516:0.11481041 1517:0.18861593 1518:0.10778628 1519:0.03930847 1520:0.019550579 1521:0.0079743667 1522:0.015189352 1523:0.052347105 1524:0.34795806 1525:0.34795806 1526:0.34795806 1527:0.2643443 1528:0.073089764 1529:0.011211129 1530:0.0056161596 1531:0.0073266416 1532:0.0096279494 1533:0.34795806 1534:0.2879265 1535:0.088701814 1536:0.035363462 1537:0.024557564 1538:0.013187196 1539:0.011701271 1540:0.029933788 1541:0.10269665 1542:0.34795806 1543:0.34795806 1544:0.1202018 1545:0.041319899 1546:0.040791437 1547:0.017498497 1548:0.0049056634 1549:0.032807916 1550:0.11168141 1551:0.33988306 1552:0.20352164 1553:0.12089739 1554:0.069882907 1555:0.027905842 1556:0.011837267 1557:0.016120594 1558:0.070157297 1559:0.16510633 1560:0.33988306 1561:0.24275398 1562:0.25548953 1563:0.16114335 1564:0.043454338 1565:0.053682517 1566:0.06531433 1567:0.032945603 1568:0.15835649 1569:0.33988306 1570:0.19199711 1571:0.035649344 1572:0.018274006 1573:0.056454848 1574:0.020505147 1575:0.0067668795 1576:0.10797354 1577:0.33988306 1578:0.33988306 1579:0.24640995 1580:0.085758895 1581:0.017955385 1582:0.053838603 1583:0.021874839 1584:0.015799826 1585:0.049073432 1586:0.092667721 1587:0.3037467 1588:0.26166862 1589:0.31897244 1590:0.21984397 1591:0.033675756 1592:0.038121719 1593:0.043036394 1594:0.087492384 1595:0.15407866 1596:0.068496615 1597:0.097584575 1598:0.2012824 1599:0.073801525 1600:0.018448286 1601:0.011342715 1602:0.02195281 1603:0.1525069 1604:0.31897244 1605:0.31897244 1606:0.24260174 1607:0.13226983 1608:0.020829298 1609:0.030050805 1610:0.022250241 1611:0.020079229 1612:0.26818278 1613:0.31897244 1614:0.27965176 1615:0.077719435 1616:0.08764594 1617:0.029713172 1618:0.04148962 1619:0.028675992 1620:0.060813263 1621:0.14460967 1622:0.12994929 1623:0.016626829 1624:0.027050849 1625:0.087809369 1626:0.10757388 1627:0.045434497 1628:0.034175847 1629:0.082841642 1630:0.089288019 1631:0.036519382 1632:0.0069315596 1633:0.026340194 1634:0.27252936 1635:0.29452884 1636:0.29452884 1637:0.17250295 1638:0.098840415 1639:0.29452884 1640:0.29452884 1641:0.12553796 1642:0.043604378 1643:0.09225332 1644:0.060541075 1645:0.11437355 1646:0.11960714 1647:0.14263809 1648:0.21594113 1649:0.12246095 1650:0.091290496 1651:0.070947573 1652:0.19647877 1653:0.23554917 1654:0.29452884 1655:0.29452884 1656:0.19465353 1657:0.011370569 1658:0.007827417 1659:0.0038229253 1660:0.0076889903 1661:0.083609916 1662:0.2697522 1663:0.31050804 1664:0.31050804 1665:0.047044583 1666:0.041296009 1667:0.0064940341 1668:0.0075280047 1669:0.012153873 1670:0.013589753 1671:0.075461678 1672:0.31050804 1673:0.31050804 1674:0.2178964 1675:0.029292446 1676:0.01127642 1677:0.018600905 1678:0.022908544 1679:0.11061046 1680:0.12134486 1681:0.31050804 1682:0.31050804 1683:0.09052939 1684:0.047581483 1685:0.0067055728 1686:0.010004636 1687:0.01284725 1688:0.10727015 1689:0.13780043 1690:0.2035605 1691:0.31050804 1692:0.27005348 1693:0.20929568 1694:0.12933034 1695:0.05001463 1696:0.031113772 1697:0.010835234 1698:0.038804241 1699:0.12574323 1700:0.26290306 1701:0.26290306 1702:0.21109404 1703:0.26290306 1704:0.26290306 1705:0.051847015 1706:0.031652957 1707:0.050366051 1708:0.030805567 1709:0.051492408 1710:0.16073197 1711:0.23279352 1712:0.12551472 1713:0.012674152 1714:0.013961318 1715:0.04822959 1716:0.15895912 1717:0.15605286 1718:0.26290306 1719:0.26290306 1720:0.21635385 1721:0.26290306 1722:0.14741577 1723:0.017154297 1724:0.074092053 1725:0.22488064 1726:0.19186404 1727:0.15818259 1728:0.20714889 1729:0.069653362 1730:0.27317169 1731:0.31006208 1732:0.10372305 1733:0.2552177 1734:0.31006208 1735:0.053421699 1736:0.0080572329 1737:0.017305464 1738:0.020640096 1739:0.042680133 1740:0.053304967 1741:0.073346086 1742:0.31006208 1743:0.31006208 1744:0.040838178 1745:0.0060334671 1746:0.0041367104 1747:0.035600912 1748:0.15102756 1749:0.15396228 1750:0.025186865 1751:0.31006208 1752:0.31006208 1753:0.063954361 1754:0.033517033 1755:0.024199098 1756:0.0024717329 1757:0.010626186 1758:0.020438114 1759:0.031570204 1760:0.31006208 1761:0.31006208 1762:0.013577189 1763:0.013175422 1764:0.030174933 1765:0.007791318 1766:0.011807667 1767:0.32232508 1768:0.24617381 1769:0.048329309 1770:0.030071033 1771:0.02394665 1772:0.014321165 1773:0.019759445 1774:0.026249584 1775:0.079372153 1776:0.32232508 1777:0.22520547 1778:0.042599823 1779:0.038383324 1780:0.036970597 1781:0.039348871 1782:0.034047086 1783:0.020685587 1784:0.045723461 1785:0.32232508 1786:0.25055426 1787:0.1145066 1788:0.15046579 1789:0.32232508 1790:0.13615808 1791:0.03224583 1792:0.030323176 1793:0.12500156 1794:0.32232508 1795:0.32232508 1796:0.060127176 1797:0.12009615 1798:0.22268228 1799:0.18602838 1800:0.061117247 1801:0.014757745 1802:0.12250892 1803:0.39100617 1804:0.11037076 1805:0.02201006 1806:0.012140606 1807:0.034252156 1808:0.020722738 1809:0.01181112 1810:0.095672816 1811:0.37130755 1812:0.39100617 1813:0.12199369 1814:0.020997511 1815:0.0093340762 1816:0.027722901 1817:0.015978841 1818:0.021262711 1819:0.014128638 1820:0.13078803 1821:0.39100617 1822:0.23273708 1823:0.068872534 1824:0.042248812 1825:0.035249285 1826:0.0482345 1827:0.018532282 1828:0.063993737 1829:0.20780185 1830:0.39100617 1831:0.17947751 1832:0.11311982 1833:0.091138363 1834:0.04938022 1835:0.045788851 1836:0.061812814 1837:0.16739823 1838:0.29434264 1839:0.29434264 1840:0.11968844 1841:0.11097423 1842:0.029606676 1843:0.043562215 1844:0.034374714 1845:0.03905319 1846:0.17746951 1847:0.29434264 1848:0.25939924 1849:0.12765089 1850:0.207784 1851:0.07674069 1852:0.067283526 1853:0.041525558 1854:0.045229152 1855:0.098603331 1856:0.16757557 1857:0.26072109 1858:0.16792312 1859:0.29434264 1860:0.16436063 1861:0.056406561 1862:0.060503975 1863:0.086049832 1864:0.085852377 1865:0.13289654 1866:0.13701208 1867:0.19486862 1868:0.29434264 1869:0.25149944 1870:0.080775507 1871:0.048723023 1872:0.046047393 1873:0.16779898 1874:0.23457156 1875:0.15615128 1876:0.082106255 1877:0.21724246 1878:0.17133741 1879:0.11568169 1880:0.10170299 1881:0.04917416 1882:0.13580187 1883:0.099914372 1884:0.15330045 1885:0.13915198 1886:0.23457156 1887:0.23457156 1888:0.23457156 1889:0.23457156 1890:0.061127104 1891:0.10442676 1892:0.10732003 1893:0.080173038 1894:0.083583817 1895:0.23457156 1896:0.23457156 1897:0.10086867 1898:0.12759024 1899:0.054980632 1900:0.14131151 1901:0.08703725 1902:0.14035808 1903:0.20228705 1904:0.23457156 1905:0.23457156 1906:0.23436281 1907:0.22441801 1908:0.081684634 1909:0.047688402 1910:0.018178049 1911:0.049902342 1912:0.10787117 1913:0.28517437 1914:0.28517437 1915:0.28517437 1916:0.22963677 1917:0.050857224 1918:0.031911939 1919:0.0095028197 1920:0.011148046 1921:0.041128892 1922:0.28517437 1923:0.28517437 1924:0.092928901 1925:0.2519522 1926:0.10396181 1927:0.085231692 1928:0.046941563 1929:0.070711277 1930:0.18728967 1931:0.28517437 1932:0.28517437 1933:0.19191641 1934:0.10908085 1935:0.062224306 1936:0.014021767 1937:0.0070641511 1938:0.0060632476 1939:0.055478308 1940:0.28517437 1941:0.28517437 1942:0.04160931 1943:0.0038627149 1944:0.0087469146 1945:0.054125745 1946:0.025931654 1947:0.0059282775 1948:0.028172929 1949:0.17265554 1950:0.34917423 1951:0.15114489 1952:0.14810559 1953:0.12737529 1954:0.042237736 1955:0.040239576 1956:0.011404258 1957:0.024425959 1958:0.31506732 1959:0.34917423 1960:0.20509666 1961:0.10795684 1962:0.078828126 1963:0.0024904299 1964:0.0010163166 1965:0.0076773949 1966:0.035776991 1967:0.34917423 1968:0.34917423 1969:0.046229113 1970:0.0049807532 1971:0.0031329417 1972:0.0021395299 1973:0.0044389875 1974:0.010277976 1975:0.030254385 1976:0.34917423 1977:0.34917423 1978:0.041018158 1979:0.010171733 1980:0.0071058734 1981:0.0091721034 1982:0.015310662 1983:0.013324094 1984:0.023043357 1985:0.35068268 1986:0.35068268 1987:0.047535039 1988:0.021551752 1989:0.011823884 1990:0.004533004 1991:0.0035849721 1992:0.013655524 1993:0.020385263 1994:0.35068268 1995:0.35068268 1996:0.0042009172 1997:0.01251179 1998:0.065365016 1999:0.0028719169 2000:0.0070076669 2001:0.011469186 2002:0.02693958 2003:0.35068268 2004:0.35068268 2005:0.008606351 2006:0.0053295628 2007:0.0022420641 2008:0.0049595996 2009:0.0022819766 2010:0.020508038 2011:0.023943584 2012:0.35068268 2013:0.35068268 2014:0.0092312293 2015:0.003491502 2016:0.03941182 2017:0.02551928 2018:0.056510553 2019:0.16684256 2020:0.11242077 2021:0.085029893 2022:0.16266741 2023:0.31644019 2024:0.11019184 2025:0.056213658 2026:0.023174359 2027:0.1369434 2028:0.31644019 2029:0.31644019 2030:0.066996016 2031:0.11088443 2032:0.29142973 2033:0.12710457 2034:0.073452063 2035:0.020802418 2036:0.037616707 2037:0.091216773 2038:0.11111385 2039:0.16479406 2040:0.12002253 2041:0.17383777 2042:0.031753421 2043:0.069719464 2044:0.021714166 2045:0.097319916 2046:0.31644019 2047:0.31644019 2048:0.31644019 2049:0.15537709 2050:0.13164075 2051:0.035456937 2052:0.08559072 2053:0.015263907 2054:0.095017247 2055:0.30609855 2056:0.30609855 2057:0.1405461 2058:0.093781225 2059:0.036544766 2060:0.03905911 2061:0.018659743 2062:0.065433301 2063:0.048048135 2064:0.30609855 2065:0.16314933 2066:0.27579495 2067:0.23492539 2068:0.09745843 2069:0.076366469 2070:0.077623114 2071:0.015196917 2072:0.055182748 2073:0.30609855 2074:0.2915169 2075:0.30609855 2076:0.11281606 2077:0.023601029 2078:0.0054614255 2079:0.015415435 2080:0.03256537 2081:0.023730323 2082:0.17172396 2083:0.17805117 2084:0.28654999 2085:0.19607006 2086:0.094861858 2087:0.077826872 2088:0.037281599 2089:0.066141754 2090:0.019505998 2091:0.051430874 2092:0.091948867 2093:0.33590743 2094:0.33165807 2095:0.10443059 2096:0.097982556 2097:0.084248088 2098:0.030479226 2099:0.014412372 2100:0.015071578 2101:0.074931093 2102:0.33590743 2103:0.33590743 2104:0.061503507 2105:0.039235748 2106:0.026719216 2107:0.03349236 2108:0.014605852 2109:0.039277676 2110:0.055243213 2111:0.33590743 2112:0.33471194 2113:0.11866233 2114:0.11604421 2115:0.061777219 2116:0.012329941 2117:0.0070207524 2118:0.0063498314 2119:0.020534264 2120:0.33590743 2121:0.33590743 2122:0.040261246 2123:0.032996591 2124:0.021731479 2125:0.072729573 2126:0.045553502 2127:0.029576622 2128:0.086895801 2129:0.25252122 2130:0.25252122 2131:0.10535607 2132:0.094294541 2133:0.048237734 2134:0.20665699 2135:0.13093521 2136:0.12319542 2137:0.25252122 2138:0.25217521 2139:0.25252122 2140:0.25252122 2141:0.22830412 2142:0.10700095 2143:0.011586948 2144:0.014484404 2145:0.029093519 2146:0.082291774 2147:0.25252122 2148:0.22504607 2149:0.076946124 2150:0.011804123 2151:0.0024665084 2152:0.12456946 2153:0.088526957 2154:0.098865606 2155:0.25252122 2156:0.25252122 2157:0.25252122 2158:0.25252122 2159:0.11003815 2160:0.097948484 2161:0.11662357 2162:0.0805531 2163:0.054446585 2164:0.18489626 2165:0.30581409 2166:0.30581409 2167:0.16250436 2168:0.1168448 2169:0.066402905 2170:0.010082575 2171:0.0078192921 2172:0.012114193 2173:0.081807442 2174:0.30581409 2175:0.30581409 2176:0.020347392 2177:0.017971696 2178:0.0091667594 2179:0.10568103 2180:0.061450582 2181:0.046567056 2182:0.21982959 2183:0.30581409 2184:0.30581409 2185:0.19686037 2186:0.11977696 2187:0.095799677 2188:0.017560711 2189:0.0064823274 2190:0.013835314 2191:0.093868271 2192:0.30581409 2193:0.30581409 2194:0.017447522 2195:0.039013159 2196:0.018348493 2197:0.0010361361 2198:0.0010176246 2199:0.016047368 2200:0.048642348 2201:0.33346432 2202:0.35402033 2203:0.0061590862 2204:0.00081583933 2205:0.001392171 2206:0.0010247835 2207:0.0013700975 2208:0.010619935 2209:0.039682578 2210:0.35402033 2211:0.35402033 2212:0.0044079809 2213:0.0027325819 2214:0.0026280028 2215:0.001995143 2216:0.0018649381 2217:0.015457394 2218:0.041739039 2219:0.35402033 2220:0.35402033 2221:0.0034149915 2222:0.0040901173 2223:0.005245341 2224:0.0021446836 2225:0.0019136597 2226:0.010864752 2227:0.036677912 2228:0.35402033 2229:0.35402033 2230:0.0047747483 2231:0.0026971546 2232:0.003884682 2233:0.0003536634 2234:0.0012929974 2235:0.0026385444 2236:0.021970877 2237:0.35224134 2238:0.35224134 2239:0.0043087606 2240:0.0043274011 2241:0.00081990974 2242:0.0011983974 2243:0.0007117886 2244:0.0064807916 2245:0.017848503 2246:0.35224134 2247:0.35224134 2248:0.0066227252 2249:0.0015585718 2250:0.0030220551 2251:0.00038822732 2252:0.0015269865 2253:0.0020761394 2254:0.039913207 2255:0.35224134 2256:0.35224134 2257:0.0036665522 2258:0.0010242694 2259:9.0444701e-05 2260:0.00082129828 2261:0.0011190409 2262:0.0023526177 2263:0.03614134 2264:0.35224134 2265:0.35224134 2266:0.0033547541 2267:0.0012612559 2268:0.00090978638 2269:0.0088319387 2270:0.0072579174 2271:0.015541813 2272:0.078556478 2273:0.36495134 2274:0.12689316 2275:0.0077373441 2276:0.0048684357 2277:0.019436605 2278:0.043341257 2279:0.080654301 2280:0.12009701 2281:0.32007551 2282:0.37361142 2283:0.22165227 2284:0.012237084 2285:0.0037933311 2286:0.024804225 2287:0.0017807138 2288:0.0022854689 2289:0.015734525 2290:0.047800571 2291:0.37361142 2292:0.17055334 2293:0.0054542497 2294:0.00073328201 2295:0.0015159084 2296:0.062813401 2297:0.082493186 2298:0.063730471 2299:0.26722836 2300:0.37361142 2301:0.35386544 2302:0.049181674 2303:0.018388318 2304:0.013701903 2305:0.10588457 2306:0.17111288 2307:0.26694211 2308:0.29231191 2309:0.29231191 2310:0.16450737 2311:0.023307096 2312:0.0068061189 2313:0.024418108 2314:0.048802279 2315:0.077014036 2316:0.21071908 2317:0.23924397 2318:0.26341131 2319:0.13838427 2320:0.075032257 2321:0.04599344 2322:0.03683361 2323:0.20978586 2324:0.18556312 2325:0.10530776 2326:0.26147658 2327:0.29231191 2328:0.25185108 2329:0.052738238 2330:0.040296867 2331:0.057297032 2332:0.29231191 2333:0.084497847 2334:0.084027253 2335:0.15831645 2336:0.12818214 2337:0.065996282 2338:0.032242216 2339:0.056384496 2340:0.12006414 2341:0.0078494968 2342:0.017641036 2343:0.03673654 2344:0.049951382 2345:0.37309095 2346:0.2033522 2347:0.03590269 2348:0.027607122 2349:0.021347435 2350:0.0025644728 2351:0.0078023095 2352:0.013565186 2353:0.027223818 2354:0.37309095 2355:0.36720446 2356:0.011553639 2357:0.0065449239 2358:0.0075614587 2359:0.19889575 2360:0.048401508 2361:0.041661926 2362:0.093401 2363:0.37309095 2364:0.16755253 2365:0.010936032 2366:0.014343377 2367:0.058352593 2368:0.12047251 2369:0.055077072 2370:0.036135174 2371:0.11229549 2372:0.37309095 2373:0.37309095 2374:0.0030418448 2375:0.0016782666 2376:0.022477923 2377:0.0074028899 2378:0.0075961822 2379:0.016432503 2380:0.071268223 2381:0.28066421 2382:0.19401222 2383:0.029786684 2384:0.0062185749 2385:0.0024545789 2386:0.19252491 2387:0.081252925 2388:0.042276807 2389:0.27975947 2390:0.28066421 2391:0.20889445 2392:0.24199529 2393:0.12354322 2394:0.1021127 2395:0.063446 2396:0.038714737 2397:0.026552541 2398:0.10237066 2399:0.28066421 2400:0.24831422 2401:0.0075925053 2402:0.017422007 2403:0.03815506 2404:0.28066421 2405:0.11100379 2406:0.076935135 2407:0.20505282 2408:0.28066421 2409:0.22692253 2410:0.12891294 2411:0.22198261 2412:0.22322114 2413:0.14471614 2414:0.054966759 2415:0.036409281 2416:0.20836627 2417:0.27136073 2418:0.27136073 2419:0.19335642 2420:0.12213854 2421:0.10014001 2422:0.018090826 2423:0.0068193339 2424:0.01691296 2425:0.10595228 2426:0.27136073 2427:0.27136073 2428:0.06084507 2429:0.033919353 2430:0.025697429 2431:0.24855821 2432:0.078845523 2433:0.11411305 2434:0.22704329 2435:0.27136073 2436:0.27136073 2437:0.16444139 2438:0.17216791 2439:0.14067398 2440:0.028747179 2441:0.019835124 2442:0.066850327 2443:0.16473693 2444:0.27136073 2445:0.27136073 2446:0.12658645 2447:0.032089196 2448:0.028921641 2449:0.0010413189 2450:0.0012749553 2451:0.0039470363 2452:0.037740197 2453:0.36832389 2454:0.28974962 2455:0.0071925293 2456:0.00311644 2457:0.0028711183 2458:0.0010890064 2459:0.0026734599 2460:0.0039267996 2461:0.03388869 2462:0.36832389 2463:0.36832389 2464:0.0053220191 2465:0.0016958399 2466:0.0019955204 2467:0.0021961327 2468:0.0065381136 2469:0.012820153 2470:0.060996015 2471:0.36832389 2472:0.2961809 2473:0.019726394 2474:0.0051654228 2475:0.0054348893 2476:0.0022771549 2477:0.011374508 2478:0.018174781 2479:0.052962884 2480:0.36832389 2481:0.36832389 2482:0.013210122 2483:0.004359012 2484:0.010304624 2485:0.00084485469 2486:0.0026556617 2487:0.0021231065 2488:0.04286794 2489:0.3499018 2490:0.3499018 2491:0.0046721511 2492:4.7275742e-05 2493:0.00016961971 2494:0.0012493546 2495:0.0016509227 2496:0.0055755321 2497:0.12117396 2498:0.3499018 2499:0.30536488 2500:0.0038974297 2501:0.00048114502 2502:0.0010514462 2503:0.0012534935 2504:0.0046423925 2505:0.020976646 2506:0.066676252 2507:0.3499018 2508:0.3499018 2509:0.014230949 2510:0.0023586254 2511:0.0068808636 2512:0.0018733362 2513:0.0018910513 2514:0.018590815 2515:0.23743202 2516:0.3499018 2517:0.3000282 2518:0.0122523 2519:0.00069826609 2520:0.0018354271 2521:0.00453657 2522:0.0033568833 2523:0.010614148 2524:0.03810747 2525:0.31997558 2526:0.17337084 2527:0.015716119 2528:0.0024344923 2529:0.0044669621 2530:0.17551328 2531:0.022034312 2532:0.0098309433 2533:0.10427101 2534:0.31997558 2535:0.31997558 2536:0.20526554 2537:0.1271015 2538:0.18916133 2539:0.015369061 2540:0.0044179051 2541:0.004500383 2542:0.02945029 2543:0.31997558 2544:0.1631075 2545:0.010989897 2546:0.0042000366 2547:0.018867826 2548:0.31997558 2549:0.076216012 2550:0.024211904 2551:0.078236453 2552:0.31997558 2553:0.17697537 2554:0.1499498 2555:0.13149896 2556:0.31997558 2557:0.34686127 2558:0.017969524 2559:0.0071398686 2560:0.044062976 2561:0.28787485 2562:0.14100677 2563:0.082294263 2564:0.081286289 2565:0.21758272 2566:0.34686127 2567:0.039636333 2568:0.014520383 2569:0.04216658 2570:0.031086167 2571:0.007416321 2572:0.0037444718 2573:0.039073899 2574:0.25967169 2575:0.34686127 2576:0.054098159 2577:0.015945544 2578:0.029114624 2579:0.11949228 2580:0.052228607 2581:0.061926529 2582:0.079228066 2583:0.34686127 2584:0.34686127 2585:0.059385538 2586:0.0054761833 2587:0.0042760973 2588:0.0032645967 2589:0.00122968 2590:0.0026336808 2591:0.023946162 2592:0.34686127 2593:0.33874595 2594:0.11450462 2595:0.02879348 2596:0.065827347 2597:0.17372711 2598:0.064783633 2599:0.0034463636 2600:0.014933463 2601:0.23496647 2602:0.33874595 2603:0.14847212 2604:0.051333018 2605:0.12678222 2606:0.33874595 2607:0.184396 2608:0.0046333079 2609:0.0036335674 2610:0.10148646 2611:0.33874595 2612:0.1046501 2613:0.014166224 2614:0.011283509 2615:0.016897757 2616:0.0081266453 2617:0.010149514 2618:0.030968048 2619:0.33874595 2620:0.33874595 2621:0.12421273 2622:0.029981177 2623:0.038511321 2624:0.074043125 2625:0.032086849 2626:0.038134634 2627:0.058048464 2628:0.27036655 2629:0.23453233 2630:0.11635364 2631:0.038156178 2632:0.094482414 2633:0.28611782 2634:0.19000094 2635:0.0078350408 2636:0.020890445 2637:0.13066544 2638:0.28611782 2639:0.15801929 2640:0.0824752 2641:0.12550239 2642:0.26512825 2643:0.23784646 2644:0.092406362 2645:0.17715673 2646:0.28611782 2647:0.2439408 2648:0.14970689 2649:0.031714018 2650:0.039579701 2651:0.14736845 2652:0.09845908 2653:0.04156873 2654:0.042928606 2655:0.19904067 2656:0.28611782 2657:0.11479938 2658:0.060487214 2659:0.076640181 2660:0.15882538 2661:0.16555479 2662:0.056094088 2663:0.057727218 2664:0.28611782 2665:0.27131251 2666:0.09357167 2667:0.12904415 2668:0.20297411 2669:0.19714274 2670:0.27131251 2671:0.14190963 2672:0.17124631 2673:0.24203561 2674:0.03494975 2675:0.019083083 2676:0.095059134 2677:0.20805259 2678:0.27131251 2679:0.27131251 2680:0.14983004 2681:0.044795521 2682:0.030184731 2683:0.27131251 2684:0.064985827 2685:0.08385697 2686:0.12361558 2687:0.14579462 2688:0.21632105 2689:0.069412872 2690:0.062898375 2691:0.16291627 2692:0.028589001 2693:0.039939031 2694:0.079591155 2695:0.16095792 2696:0.27131251 2697:0.27131251 2698:0.12659687 2699:0.079330593 2700:0.048441321 2701:0.0020929736 2702:0.0076140868 2703:0.029764568 2704:0.10500833 2705:0.34310475 2706:0.30950966 2707:0.051897477 2708:0.014738359 2709:0.0078372909 2710:0.055679638 2711:0.029882448 2712:0.077271275 2713:0.088946261 2714:0.34310475 2715:0.34310475 2716:0.041536931 2717:0.016961375 2718:0.042682402 2719:0.0033996743 2720:0.012590582 2721:0.02744408 2722:0.097504333 2723:0.34310475 2724:0.33511108 2725:0.06564454 2726:0.029203311 2727:0.0094673363 2728:0.073618837 2729:0.041644562 2730:0.073991179 2731:0.11836805 2732:0.34310475 2733:0.34310475 2734:0.044562131 2735:0.017269498 2736:0.029799299 2737:0.056643091 2738:0.030536126 2739:0.092710674 2740:0.065210618 2741:0.35282645 2742:0.35282645 2743:0.018838691 2744:0.013443448 2745:0.036262088 2746:0.0081929313 2747:0.0080957832 2748:0.027673846 2749:0.11483748 2750:0.35282645 2751:0.35282645 2752:0.012531649 2753:0.0038087592 2754:0.0037689423 2755:0.072970092 2756:0.045595054 2757:0.077458143 2758:0.06078098 2759:0.35282645 2760:0.2647965 2761:0.020084076 2762:0.013107441 2763:0.027804364 2764:0.011046131 2765:0.01347354 2766:0.015985643 2767:0.051045649 2768:0.35282645 2769:0.35282645 2770:0.013620937 2771:0.0058248388 2772:0.0033223573 2773:0.0077388952 2774:0.0011163739 2775:0.0027748458 2776:0.026625268 2777:0.34907302 2778:0.18419175 2779:0.0038531988 2780:0.0058851759 2781:0.01773705 2782:0.22857071 2783:0.17002027 2784:0.10249373 2785:0.18096 2786:0.34907302 2787:0.071926169 2788:0.0088102836 2789:0.022664065 2790:0.189978 2791:0.0049944003 2792:0 2793:0.0059068664 2794:0.03750756 2795:0.34907302 2796:0.30018225 2797:0.012906264 2798:0.0058494485 2799:0.0088095134 2800:0.081758358 2801:0.090969533 2802:0.081362888 2803:0.26177165 2804:0.34907302 2805:0.34907302 2806:0.033488188 2807:0.0097497432 2808:0.052437846 2809:0.32049602 2810:0.14478366 2811:0.074383028 2812:0.098738045 2813:0.23957451 2814:0.032927208 2815:0.0040262057 2816:0.013581698 2817:0.32049602 2818:0.32049602 2819:0.037588764 2820:0.0099528888 2821:0.0073588868 2822:0.013690127 2823:0.012414849 2824:0.0090672597 2825:0.0096796229 2826:0.32049602 2827:0.20178749 2828:0.085257769 2829:0.061353531 2830:0.14292592 2831:0.32049602 2832:0.27189049 2833:0.01120957 2834:0.0061110882 2835:0.15519136 2836:0.32049602 2837:0.021694126 2838:0.012196654 2839:0.022611722 2840:0.083973296 2841:0.043724157 2842:0.013893055 2843:0.011273614 2844:0.32049602 2845:0.30891523 2846:0.018121528 2847:0.0039426158 2848:0.0013946167 2849:0.010843041 2850:0.037133683 2851:0.065510258 2852:0.082589284 2853:0.30891523 2854:0.20307957 2855:0.024406055 2856:0.0079556173 2857:0.0058537559 2858:0.072274528 2859:0.24716493 2860:0.24022691 2861:0.1771117 2862:0.30891523 2863:0.26459429 2864:0.0027911703 2865:0.0048302873 2866:0.019002182 2867:0.077484481 2868:0.08225958 2869:0.07144583 2870:0.05923295 2871:0.30891523 2872:0.066439092 2873:0.0035957156 2874:0.0056604217 2875:0.024223527 2876:0.30891523 2877:0.30891523 2878:0.25296494 2879:0.11852619 2880:0.19796196 2881:0.096055895 2882:0.077646807 2883:0.029320842 2884:0.037425913 2885:0.19182034 2886:0.42020684 2887:0.3065455 2888:0.15041047 2889:0.21808808 2890:0.10188299 2891:0.033056699 2892:0.033896644 2893:0.042113706 2894:0.10875919 2895:0.1058073 2896:0.044983722 2897:0.020671576 2898:0.097563654 2899:0.010655394 2900:0.0057587516 2901:0.0092816604 2902:0.051345557 2903:0.42020684 2904:0.42020684 2905:0.31451356 2906:0.092631564 2907:0.072168186 2908:0.0088558635 2909:0.0015439546 2910:0.0067263832 2911:0.027715689 2912:0.24311686 2913:0.14338467 2914:0.042552009 2915:0.0088943746 2916:0.014125902 2917:0.071181752 2918:0.024826858 2919:0.031563707 2920:0.066935465 2921:0.20263796 2922:0.20987791 2923:0.025098452 2924:0.022306334 2925:0.058520149 2926:0.017764023 2927:0.039030142 2928:0.033517901 2929:0.16486515 2930:0.39342991 2931:0.39342991 2932:0.053044718 2933:0.05035371 2934:0.041958101 2935:0.0018244231 2936:0.00034024564 2937:0.0043931981 2938:0.080882378 2939:0.30728838 2940:0.18711574 2941:0.050254434 2942:0.012831451 2943:0.004414808 2944:0.010812804 2945:0.0097974436 2946:0.015008063 2947:0.23517576 2948:0.39342991 2949:0.39342991 2950:0.20478077 2951:0.049122419 2952:0.0062490571 2953:0.0039165216 2954:0.0075794207 2955:0.0066999579 2956:0.052179627 2957:0.36219952 2958:0.30368531 2959:0.018757628 2960:0.012291752 2961:0.0051475721 2962:0.015242551 2963:0.011001387 2964:0.0092611611 2965:0.056705266 2966:0.36219952 2967:0.36219952 2968:0.015080302 2969:0.007646923 2970:7.3000054e-05 2971:0.0049377703 2972:0.0036434343 2973:0.003726759 2974:0.059045665 2975:0.36219952 2976:0.31794176 2977:0.049147405 2978:0.011394111 2979:0.0018176378 2980:0.003537304 2981:0.00041218766 2982:0.0028010504 2983:0.049467027 2984:0.36219952 2985:0.36219952 2986:0.0069720959 2987:0.0038146311 2988:0.0033275103 2989:0.01426021 2990:0.011636185 2991:0.0070542824 2992:0.03800657 2993:0.35946316 2994:0.29364744 2995:0.015663126 2996:0.0028096775 2997:8.290547e-05 2998:0.0036356049 2999:0.004883497 3000:0.0022186264 3001:0.038513105 3002:0.35946316 3003:0.35946316 3004:0.016846651 3005:0.0015360528 3006:0.0014208427 3007:0.0012744099 3008:0.00025179493 3009:0.0014867361 3010:0.027461365 3011:0.35946316 3012:0.35946316 3013:0.012236555 3014:0.0012001784 3015:0.0012213174 3016:0.0013095303 3017:0.0002483351 3018:0.0018524018 3019:0.025722438 3020:0.35946316 3021:0.35946316 3022:0.014302393 3023:0 3024:0.0013095303 3025:0.003054485 3026:0.00013782002 3027:0.0068347319 3028:0.034188565 3029:0.37961596 3030:0.2089186 3031:0.04015797 3032:0.0016524584 3033:0.0021784017 3034:0.0011527719 3035:0.00059972255 3036:0.0051224558 3037:0.090754479 3038:0.37961596 3039:0.37961596 3040:0.01847199 3041:0.0034314527 3042:0.0010599223 3043:0.001433204 3044:0.0033794539 3045:0.0067454446 3046:0.060561799 3047:0.37961596 3048:0.25885853 3049:0.061812174 3050:0.00092680537 3051:0.0013419086 3052:0.000253632 3053:0.0013712331 3054:0.0047920984 3055:0.036933113 3056:0.37961596 3057:0.37961596 3058:0.022278443 3059:0.0020562189 3060:0.00013958541 3061:0.011523013 3062:0.0045936559 3063:0.0080185123 3064:0.090636745 3065:0.45661783 3066:0.45661783 3067:0.021357508 3068:0.004484707 3069:0.0065115485 3070:0.029477445 3071:0.0086561991 3072:0.011681712 3073:0.030341167 3074:0.20346873 3075:0.069662116 3076:0.011702878 3077:0.0067524915 3078:0.018925587 3079:0.0027914017 3080:0.0038919973 3081:0.0085737966 3082:0.041588984 3083:0.45661783 3084:0.45661783 3085:0.026863681 3086:0.0031785641 3087:0.0016919882 3088:0.011285464 3089:0.0077887783 3090:0.01241616 3091:0.024133718 3092:0.29780856 3093:0.10567879 3094:0.015446097 3095:0.0053364299 3096:0.0091324802 3097:0.011649317 3098:0.003279719 3099:0.0083827358 3100:0.03564268 3101:0.14664513 3102:0.058531411 3103:0.017358681 3104:0.0053849248 3105:0.0087187998 3106:0.0013795093 3107:0.0015316656 3108:0.0066536646 3109:0.034377698 3110:0.48638317 3111:0.48638317 3112:0.04713726 3113:0.0057546282 3114:0.0025810448 3115:0.0067254063 3116:0.0040595327 3117:0.013442308 3118:0.023955127 3119:0.11959577 3120:0.034178037 3121:0.010892387 3122:0.0031928774 3123:0.0078234449 3124:0.0024469972 3125:0.0018244892 3126:0.018282572 3127:0.038274109 3128:0.48638317 3129:0.48638317 3130:0.010284412 3131:0.0068482514 3132:0.010624072 3133:0.00670816 3134:0.00063159235 3135:0.0020252573 3136:0.022613622 3137:0.46720243 3138:0.46720243 3139:0.02282832 3140:0.0026546968 3141:0.0080267722 3142:0.0088394498 3143:0.00065610005 3144:0.0020667398 3145:0.011488374 3146:0.17982255 3147:0.07510782 3148:0.012868643 3149:0.0036843186 3150:0.010131627 3151:0.010249201 3152:0.0079058679 3153:0.0097371768 3154:0.033218451 3155:0.46720243 3156:0.46720243 3157:0.0076968498 3158:0.0049296701 3159:0.01228244 3160:0.01597039 3161:0.014542749 3162:0.010116593 3163:0.019900762 3164:0.26458651 3165:0.098070092 3166:0.014926055 3167:0.0047095446 3168:0.012634946 3169:0.0032680922 3170:0.00028769972 3171:0.0037098636 3172:0.052772291 3173:0.27265355 3174:0.14233114 3175:0.047927096 3176:0.01699163 3177:0.0052626976 3178:0.016602203 3179:0.014359742 3180:0.012517975 3181:0.18544035 3182:0.39542398 3183:0.39542398 3184:0.23487736 3185:0.067091346 3186:0.006934776 3187:0.008086497 3188:0.0062526823 3189:0.0049279099 3190:0.035967778 3191:0.31665057 3192:0.16246873 3193:0.025902824 3194:0.009594013 3195:0.0066020242 3196:0.010458109 3197:0.0039955946 3198:0.0087938691 3199:0.17769533 3200:0.39542398 3201:0.39542398 3202:0.12083626 3203:0.023854431 3204:0.0018566224 3205:0.0077891569 3206:0.0055321818 3207:0.0021907319 3208:0.05066264 3209:0.36909819 3210:0.26641342 3211:0.056919858 3212:0.015147913 3213:0.0037265257 3214:0.0056058099 3215:0.00036881215 3216:0.00094920862 3217:0.029587816 3218:0.36909819 3219:0.36909819 3220:0.010536968 3221:0.0088166622 3222:0.0088908765 3223:0.004803848 3224:0.0021538169 3225:0.0023178388 3226:0.072032064 3227:0.36909819 3228:0.29245618 3229:0.04355799 3230:0.0092724087 3231:0.0015371577 3232:0.0036416291 3233:0.0026567997 3234:0.0014528711 3235:0.087029442 3236:0.36909819 3237:0.36909819 3238:0.014311788 3239:0.0074722148 3240:0.0043273745 3241:0.0021898949 3242:7.3611503e-05 3243:0.0007707717 3244:0.018514851 3245:0.3520312 3246:0.3520312 3247:0.0097804395 3248:0.0035232503 3249:0.003371075 3250:0.0010594534 3251:0.00019227112 3252:0.0019964909 3253:0.023586569 3254:0.3520312 3255:0.3520312 3256:0.0075764237 3257:0.00010889852 3258:0.0010594534 3259:0.0019417505 3260:0.0011651969 3261:0.00092093286 3262:0.057829365 3263:0.3520312 3264:0.3520312 3265:0.011335067 3266:0.0027384618 3267:0.0020403496 3268:0.0011475446 3269:0.00030539185 3270:0.0012163454 3271:0.019753415 3272:0.3520312 3273:0.3520312 3274:0.010032472 3275:0.0014345782 3276:0.0011475446 3277:0.014027765 3278:0.015857596 3279:0.010880563 3280:0.055888504 3281:0.36480537 3282:0.27579316 3283:0.016457299 3284:0.001784527 3285:0.0046661468 3286:0.00033591059 3287:0.0021257885 3288:0.004185867 3289:0.053565152 3290:0.36480537 3291:0.36420575 3292:0.026977368 3293:0.00016134944 3294:0 3295:0.021273026 3296:0.014527366 3297:0.0053692758 3298:0.027833832 3299:0.36480537 3300:0.33118674 3301:0.0097348988 3302:0.0086013507 3303:0.010551956 3304:0.00082190515 3305:0.0020591589 3306:0.0021220041 3307:0.05489292 3308:0.36480537 3309:0.36480537 3310:0.013090387 3311:0.0012392123 3312:0.00035155207 3313:0.001798596 3314:0.0062379274 3315:0.0083816033 3316:0.06159908 3317:0.41496608 3318:0.41496608 3319:0.022223495 3320:0.0032360216 3321:0.00021551063 3322:0.0037780942 3323:0.0072180941 3324:0.0088048037 3325:0.019075146 3326:0.27398494 3327:0.12499926 3328:0.014635308 3329:0.0074007628 3330:0.002377535 3331:0.0038907726 3332:0.0051677455 3333:0.011194997 3334:0.063831359 3335:0.41496608 3336:0.41496608 3337:0.012979249 3338:0.0024346348 3339:0.0001191261 3340:0.0048565795 3341:0.0053491015 3342:0.012512559 3343:0.022629842 3344:0.41496608 3345:0.18354794 3346:0.011473417 3347:0.0047847908 3348:0.001717539 3349:0.0032579731 3350:0.004385293 3351:0.013166736 3352:0.01236092 3353:0.092829853 3354:0.054915883 3355:0.012373053 3356:0.0053528082 3357:0.0045481226 3358:0.0026967144 3359:0.0049452325 3360:0.023904964 3361:0.042948063 3362:0.49048826 3363:0.49048826 3364:0.0083834333 3365:0.0058753649 3366:0.0081544612 3367:0.0028994977 3368:0.0032383546 3369:0.0057301871 3370:0.0077142464 3371:0.1079518 3372:0.071045928 3373:0.0066873627 3374:0.0052852714 3375:0.0039878581 3376:0.0029004279 3377:0.0076142838 3378:0.0070720543 3379:0.029986851 3380:0.49048826 3381:0.49048826 3382:0.0043081348 3383:0.0036855033 3384:0.0051908791 3385:0.0067718201 3386:0.0071852324 3387:0.0085618952 3388:0.03318714 3389:0.44116494 3390:0.44116494 3391:0.0065403073 3392:0.0054693525 3393:0.0066219694 3394:0.01364363 3395:0.012522918 3396:0.0084099146 3397:0.023245258 3398:0.2325647 3399:0.093783334 3400:0.0091965692 3401:0.0046571502 3402:0.0081266025 3403:0.0047247764 3404:0.0047007422 3405:0.003868009 3406:0.038024724 3407:0.44116494 3408:0.44116494 3409:0.0056269593 3410:0.0041804309 3411:0.0048193042 3412:0.010372365 3413:0.0062779645 3414:0.0072548469 3415:0.031865865 3416:0.34352195 3417:0.17504528 3418:0.012742629 3419:0.0060801613 3420:0.0070890523 3421:0.010695961 3422:0.0079634152 3423:0.0074505084 3424:0.041808218 3425:0.30058265 3426:0.15074752 3427:0.016458761 3428:0.0034936089 3429:0.0054821302 3430:0.03294339 3431:0.0034617225 3432:0.032501325 3433:0.17296247 3434:0.37826431 3435:0.37826431 3436:0.27823213 3437:0.028580599 3438:0.00038278045 3439:0.0085366741 3440:0.0081090126 3441:0.021593546 3442:0.087250128 3443:0.2801269 3444:0.15679003 3445:0.025377467 3446:0.0058649234 3447:0.0059707914 3448:0.025583444 3449:0.007373489 3450:0.040415425 3451:0.2237336 3452:0.37826431 3453:0.37826431 3454:0.18319729 3455:0.015951697 3456:0.0040152287 3457:0.013430883 3458:0.0023128386 3459:0.010081306 3460:0.064914919 3461:0.3651585 3462:0.26769289 3463:0.098688081 3464:0.015747717 3465:0.00036142551 3466:0.0087548383 3467:0.0043305508 3468:0.0021385206 3469:0.085435338 3470:0.3651585 3471:0.3651585 3472:0.01434147 3473:0.0034762747 3474:0.0011813575 3475:0.010316352 3476:0.0016218238 3477:0.0093250824 3478:0.063282676 3479:0.3651585 3480:0.29891163 3481:0.06155578 3482:0.0074660662 3483:0.00043571083 3484:0.0068995105 3485:0.0023926999 3486:0.0026741794 3487:0.070474125 3488:0.3651585 3489:0.3651585 3490:0.010808611 3491:0.0015801248 3492:0.00059887557 3493:0.0053921142 3494:0.0020610781 3495:0.00057028135 3496:0.071321651 3497:0.35190058 3498:0.35190058 3499:0.015490579 3500:0.00013419619 3501:0.0018145277 3502:0.003127764 3503:9.7112679e-05 3504:0.0016567907 3505:0.026449159 3506:0.35190058 3507:0.35027865 3508:0.017949333 3509:0.0035721201 3510:0.003127764 3511:0.0048988494 3512:0.0018063079 3513:0.0017071689 3514:0.092434049 3515:0.35190058 3516:0.35190058 3517:0.0089730443 3518:0.00018518712 3519:0.0017149509 3520:0.012501292 3521:0.00058553199 3522:0.006297064 3523:0.047185019 3524:0.35190058 3525:0.33617088 3526:0.010366641 3527:0.0030453359 3528:0.012501292 3529:0.0065222313 3530:0.002428622 3531:0.0081026237 3532:0.047573537 3533:0.35770002 3534:0.33813056 3535:0.014566105 3536:0.0082019428 3537:0.0082929935 3538:0.0013334104 3539:0.0014901239 3540:0.006302516 3541:0.033313584 3542:0.35770002 3543:0.34435824 3544:0.011376994 3545:0.0029105442 3546:0.0014630733 3547:0.0020511586 3548:0.0024633443 3549:0.02863135 3550:0.15072276 3551:0.35770002 3552:0.30285826 3553:0.0089366678 3554:0.0059678019 3555:0.0042435736 3556:0.00077494729 3557:0.00045978898 3558:0.012525992 3559:0.063883357 3560:0.35770002 3561:0.35770002 3562:0.0090638846 3563:0.0041984869 3564:0.0017361416 3565:0.0047727856 3566:0.0076051056 3567:0.011477575 3568:0.029170243 3569:0.39106342 3570:0.39106342 3571:0.0072315661 3572:0.0023318457 3573:0.00033907464 3574:0.0053464938 3575:0.0094072707 3576:0.01164087 3577:0.018393138 3578:0.38286301 3579:0.1660385 3580:0.005587148 3581:0.0033639343 3582:0.0012982732 3583:0.0015280112 3584:0.0071892771 3585:0.008799131 3586:0.075570233 3587:0.39106342 3588:0.39106342 3589:0.0043507339 3590:0.0020951459 3591:0.000935674 3592:0.0041995468 3593:0.010219175 3594:0.010013238 3595:0.04883514 3596:0.39106342 3597:0.21668562 3598:0.0053711869 3599:0.0040049227 3600:0.0077472501 3601:0.0040544057 3602:0.0043040672 3603:0.0046190214 3604:0.0047876732 3605:0.11629373 3606:0.068946891 3607:0.0065816236 3608:0.0058772662 3609:0.0046817181 3610:0.0052287271 3611:0.0084148357 3612:0.0056150109 3613:0.039494343 3614:0.48723707 3615:0.48723707 3616:0.0095540434 3617:0.0037989633 3618:0.006987643 3619:0.008233482 3620:0.0074710054 3621:0.01269779 3622:0.012276335 3623:0.095062464 3624:0.059584044 3625:0.02978716 3626:0.013447419 3627:0.017955294 3628:0.0073332144 3629:0.015476473 3630:0.017624348 3631:0.091199048 3632:0.48723707 3633:0.48723707 3634:0.038350515 3635:0.018146677 3636:0.0099224411 3637:0.0033144443 3638:0.0051998119 3639:0.0049202493 3640:0.02624822 3641:0.40736681 3642:0.40736681 3643:0.0066862307 3644:0.0026797259 3645:0.0042890143 3646:0.0051788138 3647:0.005770911 3648:0.0068296399 3649:0.021438068 3650:0.34895998 3651:0.13117769 3652:0.012834556 3653:0.0060530091 3654:0.0059563755 3655:0.0041455943 3656:0.0078557162 3657:0.011131277 3658:0.052492954 3659:0.40736681 3660:0.40736681 3661:0.0097136265 3662:0.0052795149 3663:0.006508973 3664:0.0065692221 3665:0.0075968034 3666:0.010973343 3667:0.032440942 3668:0.40736681 3669:0.14362657 3670:0.012289521 3671:0.016642701 3672:0.011552257 3673:0.0073566949 3674:0.020563949 3675:0.032983162 3676:0.10843182 3677:0.28265634 3678:0.11964646 3679:0.044988219 3680:0.021255506 3681:0.013211501 3682:0.016519928 3683:0.040674232 3684:0.0464193 3685:0.25733536 3686:0.36759958 3687:0.32455203 3688:0.17973277 3689:0.05405413 3690:0.023612272 3691:0.010987931 3692:0.020936999 3693:0.018652251 3694:0.074380502 3695:0.30337542 3696:0.10937972 3697:0.071610689 3698:0.066831209 3699:0.032320928 3700:0.027519543 3701:0.046332907 3702:0.02949002 3703:0.1770741 3704:0.36759958 3705:0.36759958 3706:0.3073208 3707:0.12684657 3708:0.050904401 3709:0.0075689093 3710:0.0051467801 3711:0.0060777594 3712:0.08373858 3713:0.37068525 3714:0.22896662 3715:0.078131795 3716:0.019787429 3717:0.0047337022 3718:0.0071600638 3719:0.0042200251 3720:0.0053856224 3721:0.080870256 3722:0.37068525 3723:0.37068525 3724:0.02454417 3725:0.0083300769 3726:0.0035292287 3727:0.01509944 3728:0.0076402272 3729:0.0081006298 3730:0.090738378 3731:0.37068525 3732:0.25752428 3733:0.13025068 3734:0.035830226 3735:0.0099757211 3736:0.0094151432 3737:0.0040662941 3738:0.0049412772 3739:0.05784269 3740:0.37068525 3741:0.37068525 3742:0.039084226 3743:0.013248723 3744:0.0045279842 3745:0.0035464598 3746:0.0041677835 3747:0.0051692864 3748:0.0797107 3749:0.37912959 3750:0.37912959 3751:0.006789315 3752:0.0029357832 3753:0.0031904122 3754:0.017576311 3755:0.0012219696 3756:0.0052607628 3757:0.034370739 3758:0.37912959 3759:0.24815549 3760:0.010844193 3761:0.0031044628 3762:0.018277852 3763:0.0024585878 3764:0.0032633434 3765:0.0034988988 3766:0.035426553 3767:0.37912959 3768:0.37912959 3769:0.0083428109 3770:0.0043537947 3771:0.0033647914 3772:0.01344008 3773:0.0012580301 3774:0.0038562098 3775:0.018189656 3776:0.37912959 3777:0.24784656 3778:0.012900935 3779:0.0030004659 3780:0.014980298 
0.32451310411427731 1:0.013682823 2:0.0075972057 3:0.050494142 4:0.19001468 5:0.27234825 6:0.17892088 7:0.13421284 8:0.026653148 9:0.0203573 10:0.021860916 11:0.023499532 12:0.059201173 13:0.23996419 14:0.27234825 15:0.27234825 16:0.27234825 17:0.15940629 18:0.05759139 19:0.032349583 20:0.012380522 21:0.05097257 22:0.15410182 23:0.27234825 24:0.27234825 25:0.16684414 26:0.046020687 27:0.042539567 28:0.037824281 29:0.016936487 30:0.10121096 31:0.19311899 32:0.27234825 33:0.27234825 34:0.27234825 35:0.18571623 36:0.075923011 37:0.048966404 38:0.025608627 39:0.063309833 40:0.16102375 41:0.20865375 42:0.21523073 43:0.20844297 44:0.21492907 45:0.10194906 46:0.092759527 47:0.055566128 48:0.11193784 49:0.21523073 50:0.19515769 51:0.20006067 52:0.087616712 53:0.14831312 54:0.10722842 55:0.11013064 56:0.044081792 57:0.16876493 58:0.19247784 59:0.21523073 60:0.21523073 61:0.21523073 62:0.21523073 63:0.18824528 64:0.15238655 65:0.079230011 66:0.13312812 67:0.19420618 68:0.21099162 69:0.2124837 70:0.17958106 71:0.18135121 72:0.21226318 73:0.12650073 74:0.089555301 75:0.10751423 76:0.22069934 77:0.15308498 78:0.11642575 79:0.06818039 80:0.095479354 81:0.1048757 82:0.21866478 83:0.14296421 84:0.11739737 85:0.19231714 86:0.22172634 87:0.1984088 88:0.10988997 89:0.094322942 90:0.17937653 91:0.096190222 92:0.081654876 93:0.1229846 94:0.18799037 95:0.19855277 96:0.15510875 97:0.17513044 98:0.1807459 99:0.15626206 100:0.22172634 101:0.14188939 102:0.15506919 103:0.20224723 104:0.22172634 105:0.22172634 106:0.22172634 107:0.22172634 108:0.20620605 109:0.072870038 110:0.07278949 111:0.068108588 112:0.13741517 113:0.23260838 114:0.18578306 115:0.12964581 116:0.02992671 117:0.055330869 118:0.027140524 119:0.064093672 120:0.14524944 121:0.27480969 122:0.27480969 123:0.27480969 124:0.18689087 125:0.018090067 126:0.01707069 127:0.11527319 128:0.063573763 129:0.078897573 130:0.13958673 131:0.15833941 132:0.26234859 133:0.1721095 134:0.077157751 135:0.0717647 136:0.21298258 137:0.045404863 138:0.13928449 139:0.27480969 140:0.27480969 141:0.27480969 142:0.27079478 143:0.12007396 144:0.083020903 145:0.096981198 146:0.10582726 147:0.20410161 148:0.25333959 149:0.28036496 150:0.1288158 151:0.080999091 152:0.062177956 153:0.070296206 154:0.11379868 155:0.072715111 156:0.10425749 157:0.071059473 158:0.24307482 159:0.27871752 160:0.28036496 161:0.15262498 162:0.12868723 163:0.1322019 164:0.021131497 165:0.11485392 166:0.20620729 167:0.28036496 168:0.24092336 169:0.079772525 170:0.048190042 171:0.063942902 172:0.028063189 173:0.019597692 174:0.050725404 175:0.076931812 176:0.28036496 177:0.28036496 178:0.28036496 179:0.031141857 180:0.036019728 181:0.052556768 182:0.007639538 183:0.013764931 184:0.022014596 185:0.28057608 186:0.32206899 187:0.32206899 188:0.083681673 189:0.070357516 190:0.026520506 191:0.0050862273 192:0.0090792216 193:0.023592677 194:0.27571934 195:0.27895373 196:0.060583588 197:0.0077138077 198:0.021901708 199:0.017494299 200:0.013535174 201:0.023756387 202:0.055391479 203:0.32206899 204:0.32206899 205:0.32206899 206:0.027372668 207:0.024987794 208:0.0075150589 209:0.0066849641 210:0.014166718 211:0.041026019 212:0.32206899 213:0.32206899 214:0.097873375 215:0.0045185941 216:0.004267537 217:0.017646467 218:0.011340242 219:0.018701036 220:0.054085918 221:0.34134433 222:0.34134433 223:0.072178423 224:0.0077812057 225:0.017809464 226:0.021953832 227:0.015817197 228:0.023490762 229:0.053845257 230:0.34134433 231:0.34134433 232:0.075686887 233:0.014664778 234:0.023156529 235:0.016165068 236:0.01920715 237:0.022534959 238:0.063337535 239:0.34134433 240:0.34134433 241:0.07077755 242:0.0033769065 243:0.01255414 244:0.03158908 245:0.048038874 246:0.05914887 247:0.14342102 248:0.34134433 249:0.34134433 250:0.078040428 251:0.0064016189 252:0.02575222 253:0.048352845 254:0.0093586398 255:0.022667741 256:0.11463105 257:0.31209305 258:0.29456288 259:0.087647296 260:0.016244935 261:0.034868766 262:0.071657844 263:0.0094816126 264:0.078577451 265:0.14393906 266:0.31209305 267:0.31209305 268:0.16012992 269:0.05250987 270:0.083836876 271:0.0407543 272:0.013002427 273:0.01923107 274:0.091958389 275:0.31209305 276:0.31209305 277:0.15031101 278:0.0035692013 279:0.043063302 280:0.14659154 281:0.02819884 282:0.067063369 283:0.17881034 284:0.31209305 285:0.31209305 286:0.1778762 287:0.035814572 288:0.093375199 289:0.10986523 290:0.040098276 291:0.13866693 292:0.1443426 293:0.17828181 294:0.14957711 295:0.11820652 296:0.09389329 297:0.12918331 298:0.23635483 299:0.095350511 300:0.12790516 301:0.14253753 302:0.13142514 303:0.12109363 304:0.13224676 305:0.12069196 306:0.20347472 307:0.14772327 308:0.064668685 309:0.20543462 310:0.24184795 311:0.24184795 312:0.24184795 313:0.16950516 314:0.076570377 315:0.08174669 316:0.24184795 317:0.14007244 318:0.24184795 319:0.24184795 320:0.24184795 321:0.091714956 322:0.12793802 323:0.14619198 324:0.24184795 325:0.16124907 326:0.09449514 327:0.089583494 328:0.085892692 329:0.099557728 330:0.081197232 331:0.14752384 332:0.13278842 333:0.18665013 334:0.12572077 335:0.077491164 336:0.095274739 337:0.086188152 338:0.093339592 339:0.19461539 340:0.24232866 341:0.16309813 342:0.17973988 343:0.25523669 344:0.10916482 345:0.11197119 346:0.11392422 347:0.086111918 348:0.10800804 349:0.25523669 350:0.23324026 351:0.25523669 352:0.23836379 353:0.087444887 354:0.082639113 355:0.067085043 356:0.13775435 357:0.23933873 358:0.25523669 359:0.25523669 360:0.25523669 361:0.077629179 362:0.03096956 363:0.051089223 364:0.063690171 365:0.06022172 366:0.23442437 367:0.17489365 368:0.11176 369:0.084954716 370:0.20810224 371:0.062742524 372:0.10469341 373:0.12015259 374:0.22364531 375:0.23709534 376:0.23709534 377:0.18832256 378:0.12034374 379:0.13756582 380:0.083786428 381:0.11827782 382:0.07109791 383:0.09852457 384:0.23709534 385:0.23709534 386:0.18478182 387:0.23709534 388:0.12800829 389:0.13735208 390:0.1633101 391:0.12982239 392:0.20717798 393:0.23709534 394:0.23709534 395:0.21121967 396:0.2320428 397:0.20146324 398:0.050844971 399:0.12047626 400:0.15719184 401:0.25422049 402:0.25422049 403:0.18956529 404:0.11408737 405:0.12206953 406:0.034454353 407:0.02226479 408:0.050571699 409:0.10588365 410:0.25422049 411:0.25422049 412:0.13772963 413:0.029776966 414:0.052679125 415:0.14522897 416:0.14794883 417:0.1347606 418:0.15066105 419:0.25422049 420:0.25422049 421:0.25422049 422:0.11742572 423:0.15645932 424:0.072387755 425:0.063389026 426:0.065529175 427:0.11083093 428:0.25422049 429:0.25422049 430:0.20846257 431:0.098386705 432:0.17434318 433:0.010746011 434:0.0085478975 435:0.011115056 436:0.062422141 437:0.31103301 438:0.31103301 439:0.2051241 440:0.017925337 441:0.021540895 442:0.0028050274 443:0.0028215942 444:0.0026505748 445:0.030485032 446:0.31103301 447:0.31103301 448:0.082083106 449:0.0056105568 450:0.0030258198 451:0.017021682 452:0.016023882 453:0.01676663 454:0.054670144 455:0.31103301 456:0.31103301 457:0.31103301 458:0.075755514 459:0.085478052 460:0.0019468152 461:0.0063796914 462:0.0033085858 463:0.029202664 464:0.31103301 465:0.31103301 466:0.23096654 467:0.015943188 468:0.0069423835 469:0.01531353 470:0.016714251 471:0.014530011 472:0.034879234 473:0.36508724 474:0.36508724 475:0.022553796 476:0.0037984727 477:0.0068331561 478:0.030075608 479:0.044673331 480:0.06887114 481:0.10589766 482:0.31518474 483:0.2446463 484:0.028023401 485:0.0023236927 486:0.013077674 487:0.013400835 488:0.012217533 489:0.013310603 490:0.050859958 491:0.36508724 492:0.36508724 493:0.040168505 494:0.0047846721 495:0.0088374373 496:0.03901723 497:0.028165914 498:0.046045832 499:0.058813453 500:0.36508724 501:0.36508724 502:0.035740223 503:0.015661215 504:0.029515928 505:0.017217573 506:0.015081263 507:0.017696308 508:0.077425726 509:0.31040794 510:0.32221767 511:0.093319938 512:0.0018304038 513:0.017269621 514:0.079913281 515:0.066137791 516:0.056850996 517:0.17930429 518:0.32221767 519:0.32221767 520:0.10531955 521:0.022147566 522:0.03248499 523:0.012332064 524:0.026893089 525:0.031926531 526:0.1176269 527:0.32221767 528:0.31587863 529:0.046941888 530:0.0054042954 531:0.012494432 532:0.023196012 533:0.077525176 534:0.057764847 535:0.24686927 536:0.32221767 537:0.32221767 538:0.11424929 539:0.032113753 540:0.0068638218 541:0.056670319 542:0.076436833 543:0.11628746 544:0.26757076 545:0.29071176 546:0.2431187 547:0.094578281 548:0.025735574 549:0.018522229 550:0.090058878 551:0.053384934 552:0.16239981 553:0.29071176 554:0.29071176 555:0.067232989 556:0.046159226 557:0.031973839 558:0.054796845 559:0.0328722 560:0.086585239 561:0.11393101 562:0.22801471 563:0.29071176 564:0.29071176 565:0.093660742 566:0.028441619 567:0.062465359 568:0.06602069 569:0.052323144 570:0.11795026 571:0.24943034 572:0.29071176 573:0.14084153 574:0.18497524 575:0.073963448 576:0.22135472 577:0.12544566 578:0.044812791 579:0.098651983 580:0.16473164 581:0.20902295 582:0.10257571 583:0.25284177 584:0.15616345 585:0.18437436 586:0.26496705 587:0.074284151 588:0.075297579 589:0.12918943 590:0.22561336 591:0.20836826 592:0.26496705 593:0.26496705 594:0.26496705 595:0.039321944 596:0.01692353 597:0.067264199 598:0.19297153 599:0.26496705 600:0.053679381 601:0.1809243 602:0.084454305 603:0.13064873 604:0.070542999 605:0.018996656 606:0.073143035 607:0.26496705 608:0.26496705 609:0.15693754 610:0.040004674 611:0.059346359 612:0.093361646 613:0.10002729 614:0.079578981 615:0.19903573 616:0.1559924 617:0.099036381 618:0.090587154 619:0.099653013 620:0.074677728 621:0.17314586 622:0.086733155 623:0.20431036 624:0.29656887 625:0.23928601 626:0.11482506 627:0.12278415 628:0.097270168 629:0.068156935 630:0.187685 631:0.021336582 632:0.037874848 633:0.19328113 634:0.29656887 635:0.29656887 636:0.15654139 637:0.014036258 638:0.014094556 639:0.033249691 640:0.040895443 641:0.18010068 642:0.29656887 643:0.29656887 644:0.29656887 645:0.18676348 646:0.024420552 647:0.026825186 648:0.076512426 649:0.16173036 650:0.23636682 651:0.23636682 652:0.13152991 653:0.095715135 654:0.14031295 655:0.066179246 656:0.052326292 657:0.17205976 658:0.13522887 659:0.10496925 660:0.057550129 661:0.049419358 662:0.089101747 663:0.14267848 664:0.12439715 665:0.20458277 666:0.23636682 667:0.11551071 668:0.23636682 669:0.23636682 670:0.2075084 671:0.21656287 672:0.17597385 673:0.051321466 674:0.11105424 675:0.12515959 676:0.12490722 677:0.19539304 678:0.103774 679:0.074573688 680:0.17346543 681:0.23636682 682:0.23636682 683:0.23636682 684:0.23636682 685:0.034175023 686:0.032468546 687:0.022892438 688:0.011319668 689:0.22181994 690:0.26449865 691:0.25484306 692:0.22540425 693:0.17119022 694:0.0075238831 695:0.014111574 696:0.016881647 697:0.014962821 698:0.26449865 699:0.26449865 700:0.17454593 701:0.063642852 702:0.013508201 703:0.060141262 704:0.091981888 705:0.065911904 706:0.0430893 707:0.26449865 708:0.26449865 709:0.26449865 710:0.26449865 711:0.15046658 712:0.05128872 713:0.032863833 714:0.034966305 715:0.043380979 716:0.26449865 717:0.26449865 718:0.26449865 719:0.12447733 720:0.043960292 721:0.0067629074 722:0.0052239625 723:0.012350906 724:0.059675746 725:0.36449093 726:0.36449093 727:0.062914304 728:0.01358287 729:0.013648937 730:0.0095069064 731:0.010596771 732:0.013495701 733:0.033542987 734:0.28708151 735:0.2996932 736:0.03764436 737:0.023616333 738:0.021752227 739:0.078410722 740:0.045383207 741:0.018398061 742:0.098493405 743:0.36449093 744:0.36449093 745:0.15011057 746:0.061599676 747:0.10039876 748:0.013297843 749:0.022782501 750:0.013943065 751:0.065433353 752:0.36449093 753:0.2926127 754:0.03828479 755:0.027048765 756:0.011771656 757:0.016728213 758:0.041602764 759:0.051850323 760:0.13019791 761:0.29882538 762:0.23494999 763:0.11568416 764:0.0200908 765:0.015348834 766:0.030976079 767:0.064064592 768:0.053109623 769:0.2399276 770:0.29882538 771:0.29882538 772:0.2174577 773:0.039451171 774:0.013427662 775:0.020203529 776:0.059466384 777:0.048595097 778:0.15845281 779:0.29882538 780:0.25460905 781:0.17257991 782:0.046258014 783:0.032502949 784:0.049419764 785:0.10237452 786:0.1425159 787:0.26834416 788:0.29882538 789:0.29882538 790:0.13591717 791:0.0349021 792:0.041631293 793:0.031773224 794:0.057170432 795:0.1268972 796:0.13447015 797:0.24490587 798:0.18073481 799:0.10627007 800:0.030535011 801:0.081715465 802:0.079976387 803:0.067165002 804:0.17451029 805:0.15691754 806:0.24490587 807:0.20158666 808:0.24490587 809:0.14531396 810:0.24490587 811:0.052597858 812:0.1141348 813:0.1824144 814:0.17314544 815:0.1834227 816:0.15961862 817:0.081812955 818:0.026730521 819:0.068057194 820:0.090690039 821:0.20366038 822:0.24490587 823:0.24490587 824:0.24490587 825:0.24490587 826:0.24490587 827:0.12336095 828:0.15761994 829:0.034332547 830:0.015212867 831:0.051682234 832:0.11560097 833:0.24173555 834:0.24742234 835:0.24742234 836:0.1190348 837:0.13469627 838:0.0040880847 839:0.0042626862 840:0.030686464 841:0.11620723 842:0.24742234 843:0.18405361 844:0.028802495 845:0.011717666 846:0.0061173765 847:0.11840919 848:0.2384128 849:0.24742234 850:0.24742234 851:0.24742234 852:0.24742234 853:0.24742234 854:0.092022821 855:0.09915249 856:0.24742234 857:0.20458011 858:0.097507119 859:0.11651108 860:0.24527054 861:0.18957964 862:0.049564678 863:0.032899931 864:0.18782879 865:0.0021472515 866:0.0029852127 867:0.025506234 868:0.10815866 869:0.29272723 870:0.26502606 871:0.068685889 872:0.0046956898 873:0.002020072 874:0.0098435991 875:0.027936511 876:0.12421961 877:0.17521437 878:0.29272723 879:0.29272723 880:0.24494357 881:0.067462884 882:0.0030915495 883:0.10585888 884:0.030603468 885:0.0085647861 886:0.017458735 887:0.22968476 888:0.23493671 889:0.26308894 890:0.072402991 891:0.092005111 892:0.03832313 893:0.013887899 894:0.01016389 895:0.017065542 896:0.26351568 897:0.29272723 898:0.29272723 899:0.29272723 900:0.095590524 901:0.032488693 902:0.082330465 903:0.1367278 904:0.10490295 905:0.22110023 906:0.20566815 907:0.23449527 908:0.18289568 909:0.057676885 910:0.066251248 911:0.13370423 912:0.093486086 913:0.076797113 914:0.1507716 915:0.2185524 916:0.19245373 917:0.25599355 918:0.11906578 919:0.059493113 920:0.035930514 921:0.024173759 922:0.031106712 923:0.10416934 924:0.14722605 925:0.26646453 926:0.26646453 927:0.23005195 928:0.23377794 929:0.20895988 930:0.13036418 931:0.072466947 932:0.083572298 933:0.11367977 934:0.19075917 935:0.26646453 936:0.26646453 937:0.06931176 938:0.14987302 939:0.11443491 940:0.091175936 941:0.25525826 942:0.23827469 943:0.2592262 944:0.21954237 945:0.061725572 946:0.05518847 947:0.073329605 948:0.057945609 949:0.073906772 950:0.2592262 951:0.2245765 952:0.16200188 953:0.065711915 954:0.025171576 955:0.22043687 956:0.2592262 957:0.2592262 958:0.086160652 959:0.15221067 960:0.21772109 961:0.085496485 962:0.10536303 963:0.1761966 964:0.053646494 965:0.21278998 966:0.18358584 967:0.06084149 968:0.2592262 969:0.2592262 970:0.10307685 971:0.017868843 972:0.013461539 973:0.079251178 974:0.052591376 975:0.018644938 976:0.060779817 977:0.36264136 978:0.36264136 979:0.10428993 980:0.031182166 981:0.045796938 982:0.0073003387 983:0.0064836415 984:0.0052810586 985:0.043245081 986:0.33087444 987:0.1993674 988:0.021170238 989:0.022648519 990:0.0051880269 991:0.030993406 992:0.056125287 993:0.03770728 994:0.051846623 995:0.36264136 996:0.36264136 997:0.12544252 998:0.011868101 999:0.00121549 1000:0.0025940861 1001:0.0023214121 1002:0.0092949746 1003:0.035352826 1004:0.36264136 1005:0.36264136 1006:0.04748771 1007:0.016912879 1008:0.0097507136 1009:0.010887933 1010:0.05595018 1011:0.093676828 1012:0.073420368 1013:0.18696973 1014:0.1498761 1015:0.064545453 1016:0.015346168 1017:0.0143556 1018:0.014902389 1019:0.14016232 1020:0.40457174 1021:0.12305161 1022:0.18015067 1023:0.092712179 1024:0.018907916 1025:0.012174479 1026:0.018660681 1027:0.044404957 1028:0.12632243 1029:0.40457174 1030:0.15233618 1031:0.25810659 1032:0.16314155 1033:0.10142791 1034:0.061342247 1035:0.03941251 1036:0.061228327 1037:0.40457174 1038:0.40457174 1039:0.10156131 1040:0.086699307 1041:0.063432947 1042:0.051931683 1043:0.052075632 1044:0.0624725 1045:0.020582717 1046:0.1589116 1047:0.35715187 1048:0.06063218 1049:0.058793202 1050:0.030483598 1051:0.0099711064 1052:0.0067652622 1053:0.01556864 1054:0.13116205 1055:0.34721151 1056:0.35715187 1057:0.077690683 1058:0.050448444 1059:0.034083843 1060:0.024606125 1061:0.016657166 1062:0.034792919 1063:0.023506206 1064:0.34892896 1065:0.35715187 1066:0.0390133 1067:0.031748127 1068:0.020479491 1069:0.011585616 1070:0.017191226 1071:0.012084796 1072:0.16554916 1073:0.35715187 1074:0.35715187 1075:0.049052291 1076:0.094295301 1077:0.073942922 1078:0.033389781 1079:0.039674111 1080:0.047253281 1081:0.21333432 1082:0.25056255 1083:0.25056255 1084:0.13577613 1085:0.10001581 1086:0.058980744 1087:0.016974293 1088:0.016092388 1089:0.06944818 1090:0.25056255 1091:0.25056255 1092:0.14390178 1093:0.096519262 1094:0.11542261 1095:0.078715049 1096:0.055130873 1097:0.057069778 1098:0.15988149 1099:0.21855423 1100:0.25056255 1101:0.25056255 1102:0.14534833 1103:0.25056255 1104:0.18466817 1105:0.036443744 1106:0.033140671 1107:0.080897465 1108:0.16469492 1109:0.22457629 1110:0.13582835 1111:0.17189303 1112:0.25056255 1113:0.23689915 1114:0.11531409 1115:0.072442248 1116:0.13731977 1117:0.20845494 1118:0.10618126 1119:0.05133586 1120:0.076252669 1121:0.13241008 1122:0.18811594 1123:0.26201725 1124:0.15508713 1125:0.17106807 1126:0.065231197 1127:0.038891606 1128:0.024298556 1129:0.04086864 1130:0.15513334 1131:0.23039587 1132:0.26201725 1133:0.26201725 1134:0.16509046 1135:0.11352351 1136:0.099337846 1137:0.078378327 1138:0.13284893 1139:0.22911151 1140:0.26201725 1141:0.24990551 1142:0.11936118 1143:0.14468116 1144:0.041779857 1145:0.049351748 1146:0.062221274 1147:0.090126023 1148:0.26201725 1149:0.26201725 1150:0.25864649 1151:0.14271195 1152:0.059204791 1153:0.065336302 1154:0.020549962 1155:0.010926614 1156:0.014913137 1157:0.11610261 1158:0.14686288 1159:0.28234124 1160:0.28234124 1161:0.23550893 1162:0.26668289 1163:0.13684569 1164:0.069670521 1165:0.034093644 1166:0.074809544 1167:0.19010252 1168:0.12253842 1169:0.28234124 1170:0.28234124 1171:0.021566791 1172:0.015457227 1173:0.018089777 1174:0.028714616 1175:0.28234124 1176:0.28234124 1177:0.0875315 1178:0.14345714 1179:0.043501697 1180:0.057679802 1181:0.011338008 1182:0.011258517 1183:0.050436553 1184:0.28234124 1185:0.28234124 1186:0.17561162 1187:0.17677635 1188:0.10526535 1189:0.19468778 1190:0.2522172 1191:0.15821005 1192:0.045698654 1193:0.13136554 1194:0.313806 1195:0.055785082 1196:0.14034821 1197:0.19483268 1198:0.027021071 1199:0.1000117 1200:0.08332511 1201:0.044307034 1202:0.32332763 1203:0.32332763 1204:0.061313007 1205:0.0090923915 1206:0.014169673 1207:0.034880359 1208:0.013779912 1209:0.011718273 1210:0.04370058 1211:0.32332763 1212:0.32332763 1213:0.14420226 1214:0.10147725 1215:0.063766979 1216:0.0034369486 1217:0.0058551338 1218:0.0069612279 1219:0.036604214 1220:0.32332763 1221:0.32332763 1222:0.022295864 1223:0.011857334 1224:0.0048468802 1225:0.0084179314 1226:0.012545761 1227:0.0095110415 1228:0.044724908 1229:0.4035635 1230:0.4035635 1231:0.063470438 1232:0.0048144851 1233:0.000897174 1234:0.0030098527 1235:0.0031188931 1236:0.0089509245 1237:0.024058584 1238:0.24804111 1239:0.25649112 1240:0.047976881 1241:0.0098122675 1242:0.0052679819 1243:0.0014316117 1244:0.0016224664 1245:0.0025096757 1246:0.043538027 1247:0.4035635 1248:0.4035635 1249:0.020998837 1250:0.004215478 1251:0.00091994501 1252:0.0088524343 1253:0.0026855324 1254:0.0083485236 1255:0.030055324 1256:0.34198239 1257:0.29302666 1258:0.036968399 1259:0.0089458879 1260:0.0062646423 1261:0.063857317 1262:0.079542182 1263:0.26149976 1264:0.14471944 1265:0.18091963 1266:0.13085146 1267:0.087003909 1268:0.13093518 1269:0.0795248 1270:0.095516227 1271:0.3169027 1272:0.3169027 1273:0.11286365 1274:0.10312815 1275:0.098814227 1276:0.1113038 1277:0.088664778 1278:0.12103809 1279:0.034062199 1280:0.033126529 1281:0.062052235 1282:0.2627345 1283:0.3169027 1284:0.10573982 1285:0.053149845 1286:0.091198139 1287:0.056695491 1288:0.051070046 1289:0.10088161 1290:0.3169027 1291:0.18642558 1292:0.3169027 1293:0.25875533 1294:0.10770376 1295:0.048448943 1296:0.088299878 1297:0.042876922 1298:0.3004545 1299:0.31494322 1300:0.071088433 1301:0.1156567 1302:0.10430771 1303:0.042300548 1304:0.027453279 1305:0.024605274 1306:0.092388205 1307:0.1665682 1308:0.31494322 1309:0.05698055 1310:0.28967574 1311:0.26122066 1312:0.054144777 1313:0.091685131 1314:0.054408085 1315:0.02055195 1316:0.07019873 1317:0.31494322 1318:0.12914853 1319:0.28285629 1320:0.23374049 1321:0.067226626 1322:0.016856661 1323:0.016976973 1324:0.035546336 1325:0.026383568 1326:0.10810124 1327:0.11627749 1328:0.31494322 1329:0.26734737 1330:0.037258118 1331:0.081397198 1332:0.033682995 1333:0.089488275 1334:0.062868744 1335:0.089274012 1336:0.087068819 1337:0.33662519 1338:0.33662519 1339:0.051696159 1340:0.087009728 1341:0.063436247 1342:0.039803542 1343:0.05581728 1344:0.039571807 1345:0.088786632 1346:0.33662519 1347:0.33430007 1348:0.068247557 1349:0.037346579 1350:0.066520765 1351:0.043536332 1352:0.014698717 1353:0.027149625 1354:0.07262028 1355:0.33662519 1356:0.33662519 1357:0.025233187 1358:0.089427635 1359:0.052681632 1360:0.015901715 1361:0.021679625 1362:0.012318454 1363:0.06188174 1364:0.33662519 1365:0.33662519 1366:0.020080965 1367:0.016025256 1368:0.019065984 1369:0.088621877 1370:0.078757033 1371:0.081703708 1372:0.10289375 1373:0.2571263 1374:0.21964942 1375:0.23820196 1376:0.071607985 1377:0.11339454 1378:0.090049088 1379:0.065537639 1380:0.11447623 1381:0.16238272 1382:0.2571263 1383:0.2571263 1384:0.2571263 1385:0.085442789 1386:0.066136293 1387:0.10779213 1388:0.062687077 1389:0.087131463 1390:0.086175315 1391:0.2571263 1392:0.12243381 1393:0.11762795 1394:0.062079098 1395:0.12274291 1396:0.18170942 1397:0.10169839 1398:0.1635486 1399:0.25249428 1400:0.2571263 1401:0.2571263 1402:0.1889185 1403:0.16531001 1404:0.20395391 1405:0.013716625 1406:0.010412438 1407:0.028829902 1408:0.079402745 1409:0.33301297 1410:0.33301297 1411:0.071450919 1412:0.019369679 1413:0.013907334 1414:0.007490667 1415:0.0013510389 1416:0.013256766 1417:0.082116768 1418:0.33301297 1419:0.33301297 1420:0.22784467 1421:0.014188739 1422:0.0047760294 1423:0.033815578 1424:0.024525763 1425:0.045675699 1426:0.13540497 1427:0.33301297 1428:0.30131191 1429:0.070184231 1430:0.04870275 1431:0.038131904 1432:0.0081484756 1433:0.0012797295 1434:0.012533586 1435:0.10863327 1436:0.33301297 1437:0.33301297 1438:0.11961374 1439:0.010800317 1440:0.0034446893 1441:0.002301519 1442:0.0013349708 1443:0.0048103621 1444:0.030394966 1445:0.33758202 1446:0.34786567 1447:0.13166986 1448:0.008576923 1449:0.002414898 1450:0.0012323881 1451:0.003130927 1452:0.0020448787 1453:0.018405719 1454:0.34786567 1455:0.34786567 1456:0.015902042 1457:0.0030524086 1458:0.0015277087 1459:0.0026059258 1460:0.0010100865 1461:0.0047397953 1462:0.054968815 1463:0.34786567 1464:0.34786567 1465:0.078811742 1466:0.007245 1467:0.0011769304 1468:0.0012669837 1469:0.0029942696 1470:0.017648794 1471:0.08148241 1472:0.34786567 1473:0.34786567 1474:0.014056269 1475:0.0045812321 1476:0.0017168935 1477:0.00078890228 1478:0.0021396249 1479:0.0018149153 1480:0.019958697 1481:0.40724143 1482:0.40724143 1483:0.01265545 1484:0.0016245205 1485:0.00087565323 1486:0.008288932 1487:0.00082720356 1488:0.0035995075 1489:0.017136887 1490:0.25930339 1491:0.22158363 1492:0.012398028 1493:0.001716413 1494:0.0047381604 1495:0.001085598 1496:0.0027627735 1497:0.038499415 1498:0.14181423 1499:0.40724143 1500:0.40724143 1501:0.027848206 1502:0.015700068 1503:0.0013552669 1504:0.0067295837 1505:0.0039624637 1506:0.0064500496 1507:0.041601811 1508:0.34825742 1509:0.26030663 1510:0.038211603 1511:0.010778631 1512:0.0027953966 1513:0.013515596 1514:0.0080219461 1515:0.022296811 1516:0.2504482 1517:0.30158255 1518:0.18014489 1519:0.036900692 1520:0.016363269 1521:0.014067913 1522:0.080892645 1523:0.036701988 1524:0.12359659 1525:0.12814763 1526:0.30158255 1527:0.30158255 1528:0.11427183 1529:0.072737098 1530:0.061669745 1531:0.0084002726 1532:0.0096523985 1533:0.021381665 1534:0.11807049 1535:0.30158255 1536:0.30158255 1537:0.066417061 1538:0.02107878 1539:0.010980635 1540:0.30063611 1541:0.097845592 1542:0.10386466 1543:0.099135056 1544:0.30158255 1545:0.30158255 1546:0.089757308 1547:0.14916071 1548:0.17441152 1549:0.19055362 1550:0.054383989 1551:0.11882047 1552:0.096300855 1553:0.21222904 1554:0.24291678 1555:0.051899403 1556:0.050561517 1557:0.11055534 1558:0.34888116 1559:0.059126347 1560:0.10331766 1561:0.11704945 1562:0.19105779 1563:0.099451475 1564:0.021594157 1565:0.036303785 1566:0.22742812 1567:0.34888116 1568:0.10430621 1569:0.083774105 1570:0.058452565 1571:0.13380848 1572:0.12459375 1573:0.033428542 1574:0.091955751 1575:0.34666988 1576:0.34888116 1577:0.083592422 1578:0.040601443 1579:0.03478042 1580:0.038564872 1581:0.022627002 1582:0.007197564 1583:0.035967942 1584:0.34888116 1585:0.30145958 1586:0.13417773 1587:0.024286732 1588:0.099219464 1589:0.30145958 1590:0.26237819 1591:0.010672157 1592:0.028980268 1593:0.17750639 1594:0.12794034 1595:0.11994255 1596:0.013000452 1597:0.11971106 1598:0.30145958 1599:0.28806889 1600:0.0076510799 1601:0.019003607 1602:0.067864724 1603:0.30145958 1604:0.16194917 1605:0.012404962 1606:0.056759313 1607:0.11034775 1608:0.065843433 1609:0.047053698 1610:0.067892343 1611:0.30145958 1612:0.24057829 1613:0.14885321 1614:0.01682394 1615:0.092071295 1616:0.19910419 1617:0.097964175 1618:0.081222959 1619:0.094951399 1620:0.2701956 1621:0.17580587 1622:0.084631078 1623:0.081720233 1624:0.14489475 1625:0.22716175 1626:0.14041542 1627:0.062500037 1628:0.10167679 1629:0.22716175 1630:0.22716175 1631:0.14755316 1632:0.16209857 1633:0.22716175 1634:0.22716175 1635:0.20436639 1636:0.161791 1637:0.18432872 1638:0.22716175 1639:0.22716175 1640:0.097807251 1641:0.052819051 1642:0.12195233 1643:0.15841568 1644:0.090177245 1645:0.082773179 1646:0.14449659 1647:0.22716175 1648:0.20785716 1649:0.11059086 1650:0.088366985 1651:0.13379309 1652:0.21496995 1653:0.19261169 1654:0.14548711 1655:0.099137969 1656:0.22716175 1657:0.041925512 1658:0.042521145 1659:0.068059385 1660:0.16872849 1661:0.3272579 1662:0.20960757 1663:0.12706324 1664:0.065567307 1665:0.050091755 1666:0.0071301665 1667:0.014757153 1668:0.047567278 1669:0.2180371 1670:0.3272579 1671:0.3272579 1672:0.096340768 1673:0.028103961 1674:0.0062318663 1675:0.025687126 1676:0.032120097 1677:0.077183835 1678:0.14839201 1679:0.3272579 1680:0.25515398 1681:0.16020109 1682:0.038355563 1683:0.029453542 1684:0.025315022 1685:0.035910949 1686:0.078837544 1687:0.21415932 1688:0.3272579 1689:0.3272579 1690:0.10574341 1691:0.049044341 1692:0.0057972725 1693:0.012646352 1694:0.018533442 1695:0.031442087 1696:0.10520981 1697:0.33748636 1698:0.33748636 1699:0.059899725 1700:0.031956833 1701:0.0044623613 1702:0.0073408126 1703:0.012529138 1704:0.052218851 1705:0.1633604 1706:0.33748636 1707:0.33748636 1708:0.019447019 1709:0.015724273 1710:0.0022302717 1711:0.052989196 1712:0.053274691 1713:0.060348898 1714:0.10666797 1715:0.33748636 1716:0.33748636 1717:0.027807591 1718:0.06080731 1719:0.0081958873 1720:0.03069873 1721:0.033154674 1722:0.046147965 1723:0.087897308 1724:0.33748636 1725:0.33748636 1726:0.013136888 1727:0.026628856 1728:0.0048673544 1729:0.0027762188 1730:0.0025546839 1731:0.06336119 1732:0.21024789 1733:0.37163207 1734:0.37163207 1735:0.036009613 1736:0.034253661 1737:0.00071910222 1738:0.0074728006 1739:0.0058130897 1740:0.014362675 1741:0.043992538 1742:0.3153739 1743:0.19116093 1744:0.044359237 1745:0.036101919 1746:0.0017677655 1747:0.032832243 1748:0.0029007401 1749:0.040739127 1750:0.10570306 1751:0.37163207 1752:0.37163207 1753:0.03006264 1754:0.05154594 1755:0.0049329232 1756:0.048913807 1757:0.0075564384 1758:0.034067016 1759:0.032757893 1760:0.37163207 1761:0.29293895 1762:0.037060626 1763:0.063417971 1764:0.011255877 1765:0.0052858833 1766:0.0093546594 1767:0.017028464 1768:0.059267573 1769:0.3747749 1770:0.31629711 1771:0.049485967 1772:0.021809962 1773:0.014329958 1774:0.19019878 1775:0.088842928 1776:0.086081088 1777:0.13282041 1778:0.3747749 1779:0.16747354 1780:0.025594596 1781:0.037705962 1782:0.09258607 1783:0.0078899898 1784:0.0084955115 1785:0.01587525 1786:0.051301777 1787:0.3747749 1788:0.26115301 1789:0.032622896 1790:0.030170646 1791:0.032631956 1792:0.037653733 1793:0.030388029 1794:0.039714187 1795:0.12636375 1796:0.3747749 1797:0.34672967 1798:0.057368312 1799:0.038516022 1800:0.019539077 1801:0.35329396 1802:0.10414582 1803:0.097720042 1804:0.0917328 1805:0.35329396 1806:0.072733447 1807:0.011836461 1808:0.030846927 1809:0.31184715 1810:0.35329396 1811:0.038507435 1812:0.025430368 1813:0.013345952 1814:0.06770175 1815:0.02001624 1816:0.0061935326 1817:0.031753108 1818:0.35329396 1819:0.11715305 1820:0.044045299 1821:0.045112152 1822:0.10419421 1823:0.35329396 1824:0.27529317 1825:0.030457802 1826:0.028148241 1827:0.080248758 1828:0.21176089 1829:0.020067701 1830:0.012500207 1831:0.0326581 1832:0.1799925 1833:0.090603158 1834:0.013644463 1835:0.019584592 1836:0.17737263 1837:0.31877348 1838:0.022932455 1839:0.002773609 1840:0.0075129294 1841:0.10387205 1842:0.12549129 1843:0.13653137 1844:0.10654412 1845:0.31877348 1846:0.1104819 1847:0.027074875 1848:0.0061792443 1849:0.019296261 1850:0.27972808 1851:0.24637052 1852:0.23243596 1853:0.11339974 1854:0.28655189 1855:0.11950174 1856:0.0020805297 1857:0.0012120261 1858:0.017694093 1859:0.31877348 1860:0.22425501 1861:0.084634952 1862:0.036869664 1863:0.16774856 1864:0.020703444 1865:0.0082165208 1866:0.0049116719 1867:0.036200874 1868:0.31877348 1869:0.31877348 1870:0.14179656 1871:0.035674125 1872:0.07454291 1873:0.14312917 1874:0.070849732 1875:0.031980045 1876:0.068884484 1877:0.33266529 1878:0.2684634 1879:0.2045286 1880:0.13627957 1881:0.15382491 1882:0.089723185 1883:0.064623408 1884:0.08998514 1885:0.10671859 1886:0.33266529 1887:0.26677188 1888:0.15282071 1889:0.084988236 1890:0.077858053 1891:0.016321577 1892:0.057310656 1893:0.02988806 1894:0.086845174 1895:0.33266529 1896:0.33266529 1897:0.11719523 1898:0.019464998 1899:0.010998248 1900:0.0077842716 1901:0.030962888 1902:0.064826675 1903:0.098433293 1904:0.33266529 1905:0.26232675 1906:0.074631199 1907:0.029949967 1908:0.00053107209 1909:0.0061748689 1910:0.022970587 1911:0.063307285 1912:0.076527901 1913:0.35559207 1914:0.24988191 1915:0.13039865 1916:0.045790453 1917:0.004405485 1918:0.012696459 1919:0.020743268 1920:0.047496539 1921:0.13805725 1922:0.35559207 1923:0.35559207 1924:0.075868912 1925:0.034534644 1926:0.0014794423 1927:0.004148575 1928:0.013940186 1929:0.062595092 1930:0.085098259 1931:0.35559207 1932:0.29431283 1933:0.068636417 1934:0.042914577 1935:0.00094712013 1936:0.0042684907 1937:0.0092965383 1938:0.041629303 1939:0.091879211 1940:0.35559207 1941:0.35559207 1942:0.035422433 1943:0.028986882 1944:0.0020726051 1945:0.026874591 1946:0.022713868 1947:0.029008036 1948:0.083057627 1949:0.3504959 1950:0.3504959 1951:0.0098304395 1952:0.019984627 1953:0.003094245 1954:0.01586725 1955:0.013279085 1956:0.013111487 1957:0.031486392 1958:0.3504959 1959:0.3504959 1960:0.0078324247 1961:0.0097676124 1962:0.0025583899 1963:0.00034506308 1964:0.00082165963 1965:0.010325303 1966:0.040185589 1967:0.3504959 1968:0.3504959 1969:0.0045725289 1970:0.0024873386 1971:0.00080817548 1972:0.0001383765 1973:5.4777309e-05 1974:0.0045928913 1975:0.023443239 1976:0.3504959 1977:0.3504959 1978:0.012609591 1979:0.00096317718 1980:0.00026632127 1981:0.018522603 1982:0.00081102608 1983:0.010437787 1984:0.033829756 1985:0.3677724 1986:0.3677724 1987:0.008284118 1988:0.014370627 1989:0.0028999795 1990:0.028382067 1991:0.0034735803 1992:0.014241567 1993:0.020850951 1994:0.31894118 1995:0.2789177 1996:0.011041214 1997:0.017284013 1998:0.0099362396 1999:0.00013344419 2000:0.00073478644 2001:0.005058167 2002:0.025421632 2003:0.3677724 2004:0.3677724 2005:0.011007362 2006:0.0038236815 2007:0.00083999947 2008:0.0026353777 2009:0.0022726576 2010:0.0077825417 2011:0.020830128 2012:0.3677724 2013:0.3677724 2014:0.007543107 2015:0.0048864912 2016:0.0040454962 2017:0.0095021483 2018:0.0057795374 2019:0.0090196747 2020:0.059929624 2021:0.36312056 2022:0.26793113 2023:0.013085438 2024:0.031307679 2025:0.023651745 2026:0.0039164997 2027:0.0086158123 2028:0.0051915753 2029:0.13205571 2030:0.36312056 2031:0.36312056 2032:0.053330939 2033:0.02159803 2034:0.00080750487 2035:0.02034374 2036:0.011974648 2037:0.01970824 2038:0.040787209 2039:0.36312056 2040:0.29720888 2041:0.02077074 2042:0.035686608 2043:0.023789169 2044:0.0017507883 2045:0.0071577854 2046:0.012747545 2047:0.1042782 2048:0.36312056 2049:0.36312056 2050:0.044899888 2051:0.027175164 2052:0.0036494096 2053:0.010855139 2054:0.022294238 2055:0.0070237685 2056:0.15425186 2057:0.3989585 2058:0.3989585 2059:0.055139009 2060:0.022124764 2061:0.0014167968 2062:0.013325642 2063:0.020702606 2064:0.010108934 2065:0.050984822 2066:0.2372357 2067:0.16947924 2068:0.020772085 2069:0.0099121211 2070:0.0040911436 2071:0.0040649096 2072:0.0069678905 2073:0.019693723 2074:0.15538441 2075:0.3989585 2076:0.3989585 2077:0.062199213 2078:0.02570352 2079:0.0044215973 2080:0.0068103741 2081:0.0098202284 2082:0.020559488 2083:0.066479705 2084:0.3989585 2085:0.21798763 2086:0.039875969 2087:0.0075855344 2088:0.0054464447 2089:0.0053010476 2090:0.0043607904 2091:0.0039562569 2092:0.024850741 2093:0.36714551 2094:0.19289622 2095:0.011946717 2096:0.0048330012 2097:0.0034153864 2098:0.005866 2099:0.0065654651 2100:0.0054872241 2101:0.05402955 2102:0.42016983 2103:0.42016983 2104:0.01024779 2105:0.0044414834 2106:0.0022051604 2107:0.0052992115 2108:0.005898546 2109:0.007430343 2110:0.030061696 2111:0.28532586 2112:0.16430199 2113:0.020488298 2114:0.0059016328 2115:0.0033690159 2116:0.0081239911 2117:0.0053411159 2118:0.0080850199 2119:0.058697242 2120:0.42016983 2121:0.42016983 2122:0.010139753 2123:0.0028364763 2124:0.0017093354 2125:0.021397261 2126:0.035541285 2127:0.02972501 2128:0.086617902 2129:0.44031212 2130:0.44031212 2131:0.0097049614 2132:0.0025691662 2133:0.000452932 2134:0.01159145 2135:0.021625523 2136:0.053770691 2137:0.069500275 2138:0.26340324 2139:0.14765522 2140:0.031276468 2141:0.021759432 2142:0.00076576904 2143:0.028671781 2144:0.022724561 2145:0.027138175 2146:0.092037909 2147:0.44031212 2148:0.44031212 2149:0.013043509 2150:0.0035585507 2151:0.0017525661 2152:0.020488365 2153:0.046666317 2154:0.056836631 2155:0.078205667 2156:0.23971933 2157:0.15933874 2158:0.046233151 2159:0.029397847 2160:0.020090247 2161:0.010732171 2162:0.0093542114 2163:0.076203495 2164:0.070895903 2165:0.36515179 2166:0.25139987 2167:0.070320912 2168:0.059693996 2169:0.0050919396 2170:0.013339781 2171:0.0070767454 2172:0.048692964 2173:0.09389063 2174:0.36515179 2175:0.36515179 2176:0.057411861 2177:0.051964201 2178:0.0079859802 2179:0.011958019 2180:0.033450417 2181:0.099473037 2182:0.088740759 2183:0.36515179 2184:0.20094854 2185:0.081601985 2186:0.065239258 2187:0.021026243 2188:0.011079582 2189:0.015078778 2190:0.085831866 2191:0.092204392 2192:0.36515179 2193:0.36515179 2194:0.071202911 2195:0.061263844 2196:0.016702192 2197:0.0013496794 2198:0.0018586627 2199:0.008075783 2200:0.043493927 2201:0.35193169 2202:0.35193169 2203:0.0072633829 2204:0.0038492952 2205:0.0020646348 2206:0.00070203672 2207:0.00040011859 2208:0.0042736456 2209:0.01819847 2210:0.35193169 2211:0.35193169 2212:0.013611773 2213:0.0006420585 2214:0.00079765759 2215:0.0014244789 2216:0.0039493516 2217:0.013422597 2218:0.039800085 2219:0.35193169 2220:0.35193169 2221:0.012515221 2222:0.0060885162 2223:0.0028372884 2224:0.0015825453 2225:0.0014686906 2226:0.008641134 2227:0.027958607 2228:0.35193169 2229:0.35193169 2230:0.01450507 2231:0.0028522017 2232:0.0016482903 2233:0.00057862716 2234:0.00037259859 2235:0.0023039242 2236:0.016412016 2237:0.35259733 2238:0.35259733 2239:0.0082319612 2240:0.0030141668 2241:0.0010700336 2242:0.0012806627 2243:0.00082500686 2244:0.0035592432 2245:0.022592155 2246:0.35259733 2247:0.35259733 2248:0.0042645251 2249:0.0045047975 2250:0.0019124711 2251:0.00096961763 2252:0.00050080317 2253:0.0033421009 2254:0.018661976 2255:0.35259733 2256:0.35259733 2257:0.0070792423 2258:0.0027745769 2259:0.0010411558 2260:0.0012585111 2261:0.00062992627 2262:0.00098303251 2263:0.021753604 2264:0.35259733 2265:0.35259733 2266:0.0067362105 2267:0.0038365596 2268:0.0013504887 2269:0.026327556 2270:0.01140729 2271:0.030633725 2272:0.07631059 2273:0.33646196 2274:0.33646196 2275:0.03695013 2276:0.025104895 2277:0.029498313 2278:0.0013912371 2279:0.0043454152 2280:0.014809034 2281:0.13826412 2282:0.33646196 2283:0.33646196 2284:0.03820074 2285:0.031196512 2286:0.004398786 2287:0.033184648 2288:0.010974541 2289:0.046812091 2290:0.13839346 2291:0.33646196 2292:0.33646196 2293:0.038689699 2294:0.016876593 2295:0.033403315 2296:0.013402807 2297:0.0040734666 2298:0.020966364 2299:0.16035862 2300:0.33646196 2301:0.33646196 2302:0.066805795 2303:0.040120855 2304:0.028959095 2305:0.005323709 2306:0.0018359803 2307:0.010198388 2308:0.1336208 2309:0.32469329 2310:0.32469329 2311:0.0424654 2312:0.019004604 2313:0.0051668398 2314:0.019869903 2315:0.004102129 2316:0.0099947955 2317:0.062261485 2318:0.27135411 2319:0.19486815 2320:0.033413988 2321:0.0043809717 2322:0.017494468 2323:0.20626892 2324:0.0049876082 2325:0.022156632 2326:0.13109379 2327:0.32469329 2328:0.32469329 2329:0.13202833 2330:0.083007686 2331:0.22229153 2332:0.32469329 2333:0.010719928 2334:0.021737397 2335:0.061210975 2336:0.17176643 2337:0.21523823 2338:0.095094591 2339:0.058236986 2340:0.32469329 2341:0.018463656 2342:0.0054616109 2343:0.0063027856 2344:0.016863463 2345:0.15350272 2346:0.069829509 